tree
version=v4
num_class=1
num_tree_per_iteration=1
label_index=0
max_feature_idx=3359
feature_names=paragraph_50_cnt paragraph_75_cnt paragraph_100_cnt paragraph_125_cnt paragraph_150_cnt paragraph_175_cnt paragraph_200_cnt paragraph_250_cnt paragraph_300_cnt paragraph_350_cnt paragraph_400_cnt paragraph_500_cnt paragraph_600_cnt paragraph_700_cnt paragraph_25_cnt paragraph_49_cnt paragraph_len_max paragraph_sentence_cnt_max paragraph_word_cnt_max paragraph_len_mean paragraph_sentence_cnt_mean paragraph_word_cnt_mean paragraph_len_min paragraph_sentence_cnt_min paragraph_word_cnt_min paragraph_len_first paragraph_sentence_cnt_first paragraph_word_cnt_first paragraph_len_last paragraph_sentence_cnt_last paragraph_word_cnt_last sentence_15_cnt sentence_50_cnt sentence_100_cnt sentence_150_cnt sentence_200_cnt sentence_250_cnt sentence_300_cnt sentence_len_max sentence_word_cnt_max sentence_len_mean sentence_word_cnt_mean sentence_len_min sentence_word_cnt_min sentence_len_first sentence_word_cnt_first sentence_len_last sentence_word_cnt_last word_1_cnt word_2_cnt word_3_cnt word_4_cnt word_5_cnt word_6_cnt word_7_cnt word_8_cnt word_9_cnt word_10_cnt word_11_cnt word_12_cnt word_13_cnt word_14_cnt word_15_cnt word_len_max word_len_mean word_len_std word_len_q1 word_len_q2 word_len_q3 tfid_0 tfid_1 tfid_2 tfid_3 tfid_4 tfid_5 tfid_6 tfid_7 tfid_8 tfid_9 tfid_10 tfid_11 tfid_12 tfid_13 tfid_14 tfid_15 tfid_16 tfid_17 tfid_18 tfid_19 tfid_20 tfid_21 tfid_22 tfid_23 tfid_24 tfid_25 tfid_26 tfid_27 tfid_28 tfid_29 tfid_30 tfid_31 tfid_32 tfid_33 tfid_34 tfid_35 tfid_36 tfid_37 tfid_38 tfid_39 tfid_40 tfid_41 tfid_42 tfid_43 tfid_44 tfid_45 tfid_46 tfid_47 tfid_48 tfid_49 tfid_50 tfid_51 tfid_52 tfid_53 tfid_54 tfid_55 tfid_56 tfid_57 tfid_58 tfid_59 tfid_60 tfid_61 tfid_62 tfid_63 tfid_64 tfid_65 tfid_66 tfid_67 tfid_68 tfid_69 tfid_70 tfid_71 tfid_72 tfid_73 tfid_74 tfid_75 tfid_76 tfid_77 tfid_78 tfid_79 tfid_80 tfid_81 tfid_82 tfid_83 tfid_84 tfid_85 tfid_86 tfid_87 tfid_88 tfid_89 tfid_90 tfid_91 tfid_92 tfid_93 tfid_94 tfid_95 tfid_96 tfid_97 tfid_98 tfid_99 tfid_100 tfid_101 tfid_102 tfid_103 tfid_104 tfid_105 tfid_106 tfid_107 tfid_108 tfid_109 tfid_110 tfid_111 tfid_112 tfid_113 tfid_114 tfid_115 tfid_116 tfid_117 tfid_118 tfid_119 tfid_120 tfid_121 tfid_122 tfid_123 tfid_124 tfid_125 tfid_126 tfid_127 tfid_128 tfid_129 tfid_130 tfid_131 tfid_132 tfid_133 tfid_134 tfid_135 tfid_136 tfid_137 tfid_138 tfid_139 tfid_140 tfid_141 tfid_142 tfid_143 tfid_144 tfid_145 tfid_146 tfid_147 tfid_148 tfid_149 tfid_150 tfid_151 tfid_152 tfid_153 tfid_154 tfid_155 tfid_156 tfid_157 tfid_158 tfid_159 tfid_160 tfid_161 tfid_162 tfid_163 tfid_164 tfid_165 tfid_166 tfid_167 tfid_168 tfid_169 tfid_170 tfid_171 tfid_172 tfid_173 tfid_174 tfid_175 tfid_176 tfid_177 tfid_178 tfid_179 tfid_180 tfid_181 tfid_182 tfid_183 tfid_184 tfid_185 tfid_186 tfid_187 tfid_188 tfid_189 tfid_190 tfid_191 tfid_192 tfid_193 tfid_194 tfid_195 tfid_196 tfid_197 tfid_198 tfid_199 tfid_200 tfid_201 tfid_202 tfid_203 tfid_204 tfid_205 tfid_206 tfid_207 tfid_208 tfid_209 tfid_210 tfid_211 tfid_212 tfid_213 tfid_214 tfid_215 tfid_216 tfid_217 tfid_218 tfid_219 tfid_220 tfid_221 tfid_222 tfid_223 tfid_224 tfid_225 tfid_226 tfid_227 tfid_228 tfid_229 tfid_230 tfid_231 tfid_232 tfid_233 tfid_234 tfid_235 tfid_236 tfid_237 tfid_238 tfid_239 tfid_240 tfid_241 tfid_242 tfid_243 tfid_244 tfid_245 tfid_246 tfid_247 tfid_248 tfid_249 tfid_250 tfid_251 tfid_252 tfid_253 tfid_254 tfid_255 tfid_256 tfid_257 tfid_258 tfid_259 tfid_260 tfid_261 tfid_262 tfid_263 tfid_264 tfid_265 tfid_266 tfid_267 tfid_268 tfid_269 tfid_270 tfid_271 tfid_272 tfid_273 tfid_274 tfid_275 tfid_276 tfid_277 tfid_278 tfid_279 tfid_280 tfid_281 tfid_282 tfid_283 tfid_284 tfid_285 tfid_286 tfid_287 tfid_288 tfid_289 tfid_290 tfid_291 tfid_292 tfid_293 tfid_294 tfid_295 tfid_296 tfid_297 tfid_298 tfid_299 tfid_300 tfid_301 tfid_302 tfid_303 tfid_304 tfid_305 tfid_306 tfid_307 tfid_308 tfid_309 tfid_310 tfid_311 tfid_312 tfid_313 tfid_314 tfid_315 tfid_316 tfid_317 tfid_318 tfid_319 tfid_320 tfid_321 tfid_322 tfid_323 tfid_324 tfid_325 tfid_326 tfid_327 tfid_328 tfid_329 tfid_330 tfid_331 tfid_332 tfid_333 tfid_334 tfid_335 tfid_336 tfid_337 tfid_338 tfid_339 tfid_340 tfid_341 tfid_342 tfid_343 tfid_344 tfid_345 tfid_346 tfid_347 tfid_348 tfid_349 tfid_350 tfid_351 tfid_352 tfid_353 tfid_354 tfid_355 tfid_356 tfid_357 tfid_358 tfid_359 tfid_360 tfid_361 tfid_362 tfid_363 tfid_364 tfid_365 tfid_366 tfid_367 tfid_368 tfid_369 tfid_370 tfid_371 tfid_372 tfid_373 tfid_374 tfid_375 tfid_376 tfid_377 tfid_378 tfid_379 tfid_380 tfid_381 tfid_382 tfid_383 tfid_384 tfid_385 tfid_386 tfid_387 tfid_388 tfid_389 tfid_390 tfid_391 tfid_392 tfid_393 tfid_394 tfid_395 tfid_396 tfid_397 tfid_398 tfid_399 tfid_400 tfid_401 tfid_402 tfid_403 tfid_404 tfid_405 tfid_406 tfid_407 tfid_408 tfid_409 tfid_410 tfid_411 tfid_412 tfid_413 tfid_414 tfid_415 tfid_416 tfid_417 tfid_418 tfid_419 tfid_420 tfid_421 tfid_422 tfid_423 tfid_424 tfid_425 tfid_426 tfid_427 tfid_428 tfid_429 tfid_430 tfid_431 tfid_432 tfid_433 tfid_434 tfid_435 tfid_436 tfid_437 tfid_438 tfid_439 tfid_440 tfid_441 tfid_442 tfid_443 tfid_444 tfid_445 tfid_446 tfid_447 tfid_448 tfid_449 tfid_450 tfid_451 tfid_452 tfid_453 tfid_454 tfid_455 tfid_456 tfid_457 tfid_458 tfid_459 tfid_460 tfid_461 tfid_462 tfid_463 tfid_464 tfid_465 tfid_466 tfid_467 tfid_468 tfid_469 tfid_470 tfid_471 tfid_472 tfid_473 tfid_474 tfid_475 tfid_476 tfid_477 tfid_478 tfid_479 tfid_480 tfid_481 tfid_482 tfid_483 tfid_484 tfid_485 tfid_486 tfid_487 tfid_488 tfid_489 tfid_490 tfid_491 tfid_492 tfid_493 tfid_494 tfid_495 tfid_496 tfid_497 tfid_498 tfid_499 tfid_500 tfid_501 tfid_502 tfid_503 tfid_504 tfid_505 tfid_506 tfid_507 tfid_508 tfid_509 tfid_510 tfid_511 tfid_512 tfid_513 tfid_514 tfid_515 tfid_516 tfid_517 tfid_518 tfid_519 tfid_520 tfid_521 tfid_522 tfid_523 tfid_524 tfid_525 tfid_526 tfid_527 tfid_528 tfid_529 tfid_530 tfid_531 tfid_532 tfid_533 tfid_534 tfid_535 tfid_536 tfid_537 tfid_538 tfid_539 tfid_540 tfid_541 tfid_542 tfid_543 tfid_544 tfid_545 tfid_546 tfid_547 tfid_548 tfid_549 tfid_550 tfid_551 tfid_552 tfid_553 tfid_554 tfid_555 tfid_556 tfid_557 tfid_558 tfid_559 tfid_560 tfid_561 tfid_562 tfid_563 tfid_564 tfid_565 tfid_566 tfid_567 tfid_568 tfid_569 tfid_570 tfid_571 tfid_572 tfid_573 tfid_574 tfid_575 tfid_576 tfid_577 tfid_578 tfid_579 tfid_580 tfid_581 tfid_582 tfid_583 tfid_584 tfid_585 tfid_586 tfid_587 tfid_588 tfid_589 tfid_590 tfid_591 tfid_592 tfid_593 tfid_594 tfid_595 tfid_596 tfid_597 tfid_598 tfid_599 tfid_600 tfid_601 tfid_602 tfid_603 tfid_604 tfid_605 tfid_606 tfid_607 tfid_608 tfid_609 tfid_610 tfid_611 tfid_612 tfid_613 tfid_614 tfid_615 tfid_616 tfid_617 tfid_618 tfid_619 tfid_620 tfid_621 tfid_622 tfid_623 tfid_624 tfid_625 tfid_626 tfid_627 tfid_628 tfid_629 tfid_630 tfid_631 tfid_632 tfid_633 tfid_634 tfid_635 tfid_636 tfid_637 tfid_638 tfid_639 tfid_640 tfid_641 tfid_642 tfid_643 tfid_644 tfid_645 tfid_646 tfid_647 tfid_648 tfid_649 tfid_650 tfid_651 tfid_652 tfid_653 tfid_654 tfid_655 tfid_656 tfid_657 tfid_658 tfid_659 tfid_660 tfid_661 tfid_662 tfid_663 tfid_664 tfid_665 tfid_666 tfid_667 tfid_668 tfid_669 tfid_670 tfid_671 tfid_672 tfid_673 tfid_674 tfid_675 tfid_676 tfid_677 tfid_678 tfid_679 tfid_680 tfid_681 tfid_682 tfid_683 tfid_684 tfid_685 tfid_686 tfid_687 tfid_688 tfid_689 tfid_690 tfid_691 tfid_692 tfid_693 tfid_694 tfid_695 tfid_696 tfid_697 tfid_698 tfid_699 tfid_700 tfid_701 tfid_702 tfid_703 tfid_704 tfid_705 tfid_706 tfid_707 tfid_708 tfid_709 tfid_710 tfid_711 tfid_712 tfid_713 tfid_714 tfid_715 tfid_716 tfid_717 tfid_718 tfid_719 tfid_720 tfid_721 tfid_722 tfid_723 tfid_724 tfid_725 tfid_726 tfid_727 tfid_728 tfid_729 tfid_730 tfid_731 tfid_732 tfid_733 tfid_734 tfid_735 tfid_736 tfid_737 tfid_738 tfid_739 tfid_740 tfid_741 tfid_742 tfid_743 tfid_744 tfid_745 tfid_746 tfid_747 tfid_748 tfid_749 tfid_750 tfid_751 tfid_752 tfid_753 tfid_754 tfid_755 tfid_756 tfid_757 tfid_758 tfid_759 tfid_760 tfid_761 tfid_762 tfid_763 tfid_764 tfid_765 tfid_766 tfid_767 tfid_768 tfid_769 tfid_770 tfid_771 tfid_772 tfid_773 tfid_774 tfid_775 tfid_776 tfid_777 tfid_778 tfid_779 tfid_780 tfid_781 tfid_782 tfid_783 tfid_784 tfid_785 tfid_786 tfid_787 tfid_788 tfid_789 tfid_790 tfid_791 tfid_792 tfid_793 tfid_794 tfid_795 tfid_796 tfid_797 tfid_798 tfid_799 tfid_800 tfid_801 tfid_802 tfid_803 tfid_804 tfid_805 tfid_806 tfid_807 tfid_808 tfid_809 tfid_810 tfid_811 tfid_812 tfid_813 tfid_814 tfid_815 tfid_816 tfid_817 tfid_818 tfid_819 tfid_820 tfid_821 tfid_822 tfid_823 tfid_824 tfid_825 tfid_826 tfid_827 tfid_828 tfid_829 tfid_830 tfid_831 tfid_832 tfid_833 tfid_834 tfid_835 tfid_836 tfid_837 tfid_838 tfid_839 tfid_840 tfid_841 tfid_842 tfid_843 tfid_844 tfid_845 tfid_846 tfid_847 tfid_848 tfid_849 tfid_850 tfid_851 tfid_852 tfid_853 tfid_854 tfid_855 tfid_856 tfid_857 tfid_858 tfid_859 tfid_860 tfid_861 tfid_862 tfid_863 tfid_864 tfid_865 tfid_866 tfid_867 tfid_868 tfid_869 tfid_870 tfid_871 tfid_872 tfid_873 tfid_874 tfid_875 tfid_876 tfid_877 tfid_878 tfid_879 tfid_880 tfid_881 tfid_882 tfid_883 tfid_884 tfid_885 tfid_886 tfid_887 tfid_888 tfid_889 tfid_890 tfid_891 tfid_892 tfid_893 tfid_894 tfid_895 tfid_896 tfid_897 tfid_898 tfid_899 tfid_900 tfid_901 tfid_902 tfid_903 tfid_904 tfid_905 tfid_906 tfid_907 tfid_908 tfid_909 tfid_910 tfid_911 tfid_912 tfid_913 tfid_914 tfid_915 tfid_916 tfid_917 tfid_918 tfid_919 tfid_920 tfid_921 tfid_922 tfid_923 tfid_924 tfid_925 tfid_926 tfid_927 tfid_928 tfid_929 tfid_930 tfid_931 tfid_932 tfid_933 tfid_934 tfid_935 tfid_936 tfid_937 tfid_938 tfid_939 tfid_940 tfid_941 tfid_942 tfid_943 tfid_944 tfid_945 tfid_946 tfid_947 tfid_948 tfid_949 tfid_950 tfid_951 tfid_952 tfid_953 tfid_954 tfid_955 tfid_956 tfid_957 tfid_958 tfid_959 tfid_960 tfid_961 tfid_962 tfid_963 tfid_964 tfid_965 tfid_966 tfid_967 tfid_968 tfid_969 tfid_970 tfid_971 tfid_972 tfid_973 tfid_974 tfid_975 tfid_976 tfid_977 tfid_978 tfid_979 tfid_980 tfid_981 tfid_982 tfid_983 tfid_984 tfid_985 tfid_986 tfid_987 tfid_988 tfid_989 tfid_990 tfid_991 tfid_992 tfid_993 tfid_994 tfid_995 tfid_996 tfid_997 tfid_998 tfid_999 tfid_1000 tfid_1001 tfid_1002 tfid_1003 tfid_1004 tfid_1005 tfid_1006 tfid_1007 tfid_1008 tfid_1009 tfid_1010 tfid_1011 tfid_1012 tfid_1013 tfid_1014 tfid_1015 tfid_1016 tfid_1017 tfid_1018 tfid_1019 tfid_1020 tfid_1021 tfid_1022 tfid_1023 tfid_1024 tfid_1025 tfid_1026 tfid_1027 tfid_1028 tfid_1029 tfid_1030 tfid_1031 tfid_1032 tfid_1033 tfid_1034 tfid_1035 tfid_1036 tfid_1037 tfid_1038 tfid_1039 tfid_1040 tfid_1041 tfid_1042 tfid_1043 tfid_1044 tfid_1045 tfid_1046 tfid_1047 tfid_1048 tfid_1049 tfid_1050 tfid_1051 tfid_1052 tfid_1053 tfid_1054 tfid_1055 tfid_1056 tfid_1057 tfid_1058 tfid_1059 tfid_1060 tfid_1061 tfid_1062 tfid_1063 tfid_1064 tfid_1065 tfid_1066 tfid_1067 tfid_1068 tfid_1069 tfid_1070 tfid_1071 tfid_1072 tfid_1073 tfid_1074 tfid_1075 tfid_1076 tfid_1077 tfid_1078 tfid_1079 tfid_1080 tfid_1081 tfid_1082 tfid_1083 tfid_1084 tfid_1085 tfid_1086 tfid_1087 tfid_1088 tfid_1089 tfid_1090 tfid_1091 tfid_1092 tfid_1093 tfid_1094 tfid_1095 tfid_1096 tfid_1097 tfid_1098 tfid_1099 tfid_1100 tfid_1101 tfid_1102 tfid_1103 tfid_1104 tfid_1105 tfid_1106 tfid_1107 tfid_1108 tfid_1109 tfid_1110 tfid_1111 tfid_1112 tfid_1113 tfid_1114 tfid_1115 tfid_1116 tfid_1117 tfid_1118 tfid_1119 tfid_1120 tfid_1121 tfid_1122 tfid_1123 tfid_1124 tfid_1125 tfid_1126 tfid_1127 tfid_1128 tfid_1129 tfid_1130 tfid_1131 tfid_1132 tfid_1133 tfid_1134 tfid_1135 tfid_1136 tfid_1137 tfid_1138 tfid_1139 tfid_1140 tfid_1141 tfid_1142 tfid_1143 tfid_1144 tfid_1145 tfid_1146 tfid_1147 tfid_1148 tfid_1149 tfid_1150 tfid_1151 tfid_1152 tfid_1153 tfid_1154 tfid_1155 tfid_1156 tfid_1157 tfid_1158 tfid_1159 tfid_1160 tfid_1161 tfid_1162 tfid_1163 tfid_1164 tfid_1165 tfid_1166 tfid_1167 tfid_1168 tfid_1169 tfid_1170 tfid_1171 tfid_1172 tfid_1173 tfid_1174 tfid_1175 tfid_1176 tfid_1177 tfid_1178 tfid_1179 tfid_1180 tfid_1181 tfid_1182 tfid_1183 tfid_1184 tfid_1185 tfid_1186 tfid_1187 tfid_1188 tfid_1189 tfid_1190 tfid_1191 tfid_1192 tfid_1193 tfid_1194 tfid_1195 tfid_1196 tfid_1197 tfid_1198 tfid_1199 tfid_1200 tfid_1201 tfid_1202 tfid_1203 tfid_1204 tfid_1205 tfid_1206 tfid_1207 tfid_1208 tfid_1209 tfid_1210 tfid_1211 tfid_1212 tfid_1213 tfid_1214 tfid_1215 tfid_1216 tfid_1217 tfid_1218 tfid_1219 tfid_1220 tfid_1221 tfid_1222 tfid_1223 tfid_1224 tfid_1225 tfid_1226 tfid_1227 tfid_1228 tfid_1229 tfid_1230 tfid_1231 tfid_1232 tfid_1233 tfid_1234 tfid_1235 tfid_1236 tfid_1237 tfid_1238 tfid_1239 tfid_1240 tfid_1241 tfid_1242 tfid_1243 tfid_1244 tfid_1245 tfid_1246 tfid_1247 tfid_1248 tfid_1249 tfid_1250 tfid_1251 tfid_1252 tfid_1253 tfid_1254 tfid_1255 tfid_1256 tfid_1257 tfid_1258 tfid_1259 tfid_1260 tfid_1261 tfid_1262 tfid_1263 tfid_1264 tfid_1265 tfid_1266 tfid_1267 tfid_1268 tfid_1269 tfid_1270 tfid_1271 tfid_1272 tfid_1273 tfid_1274 tfid_1275 tfid_1276 tfid_1277 tfid_1278 tfid_1279 tfid_1280 tfid_1281 tfid_1282 tfid_1283 tfid_1284 tfid_1285 tfid_1286 tfid_1287 tfid_1288 tfid_1289 tfid_1290 tfid_1291 tfid_1292 tfid_1293 tfid_1294 tfid_1295 tfid_1296 tfid_1297 tfid_1298 tfid_1299 tfid_1300 tfid_1301 tfid_1302 tfid_1303 tfid_1304 tfid_1305 tfid_1306 tfid_1307 tfid_1308 tfid_1309 tfid_1310 tfid_1311 tfid_1312 tfid_1313 tfid_1314 tfid_1315 tfid_1316 tfid_1317 tfid_1318 tfid_1319 tfid_1320 tfid_1321 tfid_1322 tfid_1323 tfid_1324 tfid_1325 tfid_1326 tfid_1327 tfid_1328 tfid_1329 tfid_1330 tfid_1331 tfid_1332 tfid_1333 tfid_1334 tfid_1335 tfid_1336 tfid_1337 tfid_1338 tfid_1339 tfid_1340 tfid_1341 tfid_1342 tfid_1343 tfid_1344 tfid_1345 tfid_1346 tfid_1347 tfid_1348 tfid_1349 tfid_1350 tfid_1351 tfid_1352 tfid_1353 tfid_1354 tfid_1355 tfid_1356 tfid_1357 tfid_1358 tfid_1359 tfid_1360 tfid_1361 tfid_1362 tfid_1363 tfid_1364 tfid_1365 tfid_1366 tfid_1367 tfid_1368 tfid_1369 tfid_1370 tfid_1371 tfid_1372 tfid_1373 tfid_1374 tfid_1375 tfid_1376 tfid_1377 tfid_1378 tfid_1379 tfid_1380 tfid_1381 tfid_1382 tfid_1383 tfid_1384 tfid_1385 tfid_1386 tfid_1387 tfid_1388 tfid_1389 tfid_1390 tfid_1391 tfid_1392 tfid_1393 tfid_1394 tfid_1395 tfid_1396 tfid_1397 tfid_1398 tfid_1399 tfid_1400 tfid_1401 tfid_1402 tfid_1403 tfid_1404 tfid_1405 tfid_1406 tfid_1407 tfid_1408 tfid_1409 tfid_1410 tfid_1411 tfid_1412 tfid_1413 tfid_1414 tfid_1415 tfid_1416 tfid_1417 tfid_1418 tfid_1419 tfid_1420 tfid_1421 tfid_1422 tfid_1423 tfid_1424 tfid_1425 tfid_1426 tfid_1427 tfid_1428 tfid_1429 tfid_1430 tfid_1431 tfid_1432 tfid_1433 tfid_1434 tfid_1435 tfid_1436 tfid_1437 tfid_1438 tfid_1439 tfid_1440 tfid_1441 tfid_1442 tfid_1443 tfid_1444 tfid_1445 tfid_1446 tfid_1447 tfid_1448 tfid_1449 tfid_1450 tfid_1451 tfid_1452 tfid_1453 tfid_1454 tfid_1455 tfid_1456 tfid_1457 tfid_1458 tfid_1459 tfid_1460 tfid_1461 tfid_1462 tfid_1463 tfid_1464 tfid_1465 tfid_1466 tfid_1467 tfid_1468 tfid_1469 tfid_1470 tfid_1471 tfid_1472 tfid_1473 tfid_1474 tfid_1475 tfid_1476 tfid_1477 tfid_1478 tfid_1479 tfid_1480 tfid_1481 tfid_1482 tfid_1483 tfid_1484 tfid_1485 tfid_1486 tfid_1487 tfid_1488 tfid_1489 tfid_1490 tfid_1491 tfid_1492 tfid_1493 tfid_1494 tfid_1495 tfid_1496 tfid_1497 tfid_1498 tfid_1499 tfid_1500 tfid_1501 tfid_1502 tfid_1503 tfid_1504 tfid_1505 tfid_1506 tfid_1507 tfid_1508 tfid_1509 tfid_1510 tfid_1511 tfid_1512 tfid_1513 tfid_1514 tfid_1515 tfid_1516 tfid_1517 tfid_1518 tfid_1519 tfid_1520 tfid_1521 tfid_1522 tfid_1523 tfid_1524 tfid_1525 tfid_1526 tfid_1527 tfid_1528 tfid_1529 tfid_1530 tfid_1531 tfid_1532 tfid_1533 tfid_1534 tfid_1535 tfid_1536 tfid_1537 tfid_1538 tfid_1539 tfid_1540 tfid_1541 tfid_1542 tfid_1543 tfid_1544 tfid_1545 tfid_1546 tfid_1547 tfid_1548 tfid_1549 tfid_1550 tfid_1551 tfid_1552 tfid_1553 tfid_1554 tfid_1555 tfid_1556 tfid_1557 tfid_1558 tfid_1559 tfid_1560 tfid_1561 tfid_1562 tfid_1563 tfid_1564 tfid_1565 tfid_1566 tfid_1567 tfid_1568 tfid_1569 tfid_1570 tfid_1571 tfid_1572 tfid_1573 tfid_1574 tfid_1575 tfid_1576 tfid_1577 tfid_1578 tfid_1579 tfid_1580 tfid_1581 tfid_1582 tfid_1583 tfid_1584 tfid_1585 tfid_1586 tfid_1587 tfid_1588 tfid_1589 tfid_1590 tfid_1591 tfid_1592 tfid_1593 tfid_1594 tfid_1595 tfid_1596 tfid_1597 tfid_1598 tfid_1599 tfid_1600 tfid_1601 tfid_1602 tfid_1603 tfid_1604 tfid_1605 tfid_1606 tfid_1607 tfid_1608 tfid_1609 tfid_1610 tfid_1611 tfid_1612 tfid_1613 tfid_1614 tfid_1615 tfid_1616 tfid_1617 tfid_1618 tfid_1619 tfid_1620 tfid_1621 tfid_1622 tfid_1623 tfid_1624 tfid_1625 tfid_1626 tfid_1627 tfid_1628 tfid_1629 tfid_1630 tfid_1631 tfid_1632 tfid_1633 tfid_1634 tfid_1635 tfid_1636 tfid_1637 tfid_1638 tfid_1639 tfid_1640 tfid_1641 tfid_1642 tfid_1643 tfid_1644 tfid_1645 tfid_1646 tfid_1647 tfid_1648 tfid_1649 tfid_1650 tfid_1651 tfid_1652 tfid_1653 tfid_1654 tfid_1655 tfid_1656 tfid_1657 tfid_1658 tfid_1659 tfid_1660 tfid_1661 tfid_1662 tfid_1663 tfid_1664 tfid_1665 tfid_1666 tfid_1667 tfid_1668 tfid_1669 tfid_1670 tfid_1671 tfid_1672 tfid_1673 tfid_1674 tfid_1675 tfid_1676 tfid_1677 tfid_1678 tfid_1679 tfid_1680 tfid_1681 tfid_1682 tfid_1683 tfid_1684 tfid_1685 tfid_1686 tfid_1687 tfid_1688 tfid_1689 tfid_1690 tfid_1691 tfid_1692 tfid_1693 tfid_1694 tfid_1695 tfid_1696 tfid_1697 tfid_1698 tfid_1699 tfid_1700 tfid_1701 tfid_1702 tfid_1703 tfid_1704 tfid_1705 tfid_1706 tfid_1707 tfid_1708 tfid_1709 tfid_1710 tfid_1711 tfid_1712 tfid_1713 tfid_1714 tfid_1715 tfid_1716 tfid_1717 tfid_1718 tfid_1719 tfid_1720 tfid_1721 tfid_1722 tfid_1723 tfid_1724 tfid_1725 tfid_1726 tfid_1727 tfid_1728 tfid_1729 tfid_1730 tfid_1731 tfid_1732 tfid_1733 tfid_1734 tfid_1735 tfid_1736 tfid_1737 tfid_1738 tfid_1739 tfid_1740 tfid_1741 tfid_1742 tfid_1743 tfid_1744 tfid_1745 tfid_1746 tfid_1747 tfid_1748 tfid_1749 tfid_1750 tfid_1751 tfid_1752 tfid_1753 tfid_1754 tfid_1755 tfid_1756 tfid_1757 tfid_1758 tfid_1759 tfid_1760 tfid_1761 tfid_1762 tfid_1763 tfid_1764 tfid_1765 tfid_1766 tfid_1767 tfid_1768 tfid_1769 tfid_1770 tfid_1771 tfid_1772 tfid_1773 tfid_1774 tfid_1775 tfid_1776 tfid_1777 tfid_1778 tfid_1779 tfid_1780 tfid_1781 tfid_1782 tfid_1783 tfid_1784 tfid_1785 tfid_1786 tfid_1787 tfid_1788 tfid_1789 tfid_1790 tfid_1791 tfid_1792 tfid_1793 tfid_1794 tfid_1795 tfid_1796 tfid_1797 tfid_1798 tfid_1799 tfid_1800 tfid_1801 tfid_1802 tfid_1803 tfid_1804 tfid_1805 tfid_1806 tfid_1807 tfid_1808 tfid_1809 tfid_1810 tfid_1811 tfid_1812 tfid_1813 tfid_1814 tfid_1815 tfid_1816 tfid_1817 tfid_1818 tfid_1819 tfid_1820 tfid_1821 tfid_1822 tfid_1823 tfid_1824 tfid_1825 tfid_1826 tfid_1827 tfid_1828 tfid_1829 tfid_1830 tfid_1831 tfid_1832 tfid_1833 tfid_1834 tfid_1835 tfid_1836 tfid_1837 tfid_1838 tfid_1839 tfid_1840 tfid_1841 tfid_1842 tfid_1843 tfid_1844 tfid_1845 tfid_1846 tfid_1847 tfid_1848 tfid_1849 tfid_1850 tfid_1851 tfid_1852 tfid_1853 tfid_1854 tfid_1855 tfid_1856 tfid_1857 tfid_1858 tfid_1859 tfid_1860 tfid_1861 tfid_1862 tfid_1863 tfid_1864 tfid_1865 tfid_1866 tfid_1867 tfid_1868 tfid_1869 tfid_1870 tfid_1871 tfid_1872 tfid_1873 tfid_1874 tfid_1875 tfid_1876 tfid_1877 tfid_1878 tfid_1879 tfid_1880 tfid_1881 tfid_1882 tfid_1883 tfid_1884 tfid_1885 tfid_1886 tfid_1887 tfid_1888 tfid_1889 tfid_1890 tfid_1891 tfid_1892 tfid_1893 tfid_1894 tfid_1895 tfid_1896 tfid_1897 tfid_1898 tfid_1899 tfid_1900 tfid_1901 tfid_1902 tfid_1903 tfid_1904 tfid_1905 tfid_1906 tfid_1907 tfid_1908 tfid_1909 tfid_1910 tfid_1911 tfid_1912 tfid_1913 tfid_1914 tfid_1915 tfid_1916 tfid_1917 tfid_1918 tfid_1919 tfid_1920 tfid_1921 tfid_1922 tfid_1923 tfid_1924 tfid_1925 tfid_1926 tfid_1927 tfid_1928 tfid_1929 tfid_1930 tfid_1931 tfid_1932 tfid_1933 tfid_1934 tfid_1935 tfid_1936 tfid_1937 tfid_1938 tfid_1939 tfid_1940 tfid_1941 tfid_1942 tfid_1943 tfid_1944 tfid_1945 tfid_1946 tfid_1947 tfid_1948 tfid_1949 tfid_1950 tfid_1951 tfid_1952 tfid_1953 tfid_1954 tfid_1955 tfid_1956 tfid_1957 tfid_1958 tfid_1959 tfid_1960 tfid_1961 tfid_1962 tfid_1963 tfid_1964 tfid_1965 tfid_1966 tfid_1967 tfid_1968 tfid_1969 tfid_1970 tfid_1971 tfid_1972 tfid_1973 tfid_1974 tfid_1975 tfid_1976 tfid_1977 tfid_1978 tfid_1979 tfid_1980 tfid_1981 tfid_1982 tfid_1983 tfid_1984 tfid_1985 tfid_1986 tfid_1987 tfid_1988 tfid_1989 tfid_1990 tfid_1991 tfid_1992 tfid_1993 tfid_1994 tfid_1995 tfid_1996 tfid_1997 tfid_1998 tfid_1999 tfid_2000 tfid_2001 tfid_2002 tfid_2003 tfid_2004 tfid_2005 tfid_2006 tfid_2007 tfid_2008 tfid_2009 tfid_2010 tfid_2011 tfid_2012 tfid_2013 tfid_2014 tfid_2015 tfid_2016 tfid_2017 tfid_2018 tfid_2019 tfid_2020 tfid_2021 tfid_2022 tfid_2023 tfid_2024 tfid_2025 tfid_2026 tfid_2027 tfid_2028 tfid_2029 tfid_2030 tfid_2031 tfid_2032 tfid_2033 tfid_2034 tfid_2035 tfid_2036 tfid_2037 tfid_2038 tfid_2039 tfid_2040 tfid_2041 tfid_2042 tfid_2043 tfid_2044 tfid_2045 tfid_2046 tfid_2047 tfid_2048 tfid_2049 tfid_2050 tfid_2051 tfid_2052 tfid_2053 tfid_2054 tfid_2055 tfid_2056 tfid_2057 tfid_2058 tfid_2059 tfid_2060 tfid_2061 tfid_2062 tfid_2063 tfid_2064 tfid_2065 tfid_2066 tfid_2067 tfid_2068 tfid_2069 tfid_2070 tfid_2071 tfid_2072 tfid_2073 tfid_2074 tfid_2075 tfid_2076 tfid_2077 tfid_2078 tfid_2079 tfid_2080 tfid_2081 tfid_2082 tfid_2083 tfid_2084 tfid_2085 tfid_2086 tfid_2087 tfid_2088 tfid_2089 tfid_2090 tfid_2091 tfid_2092 tfid_2093 tfid_2094 tfid_2095 tfid_2096 tfid_2097 tfid_2098 tfid_2099 tfid_2100 tfid_2101 tfid_2102 tfid_2103 tfid_2104 tfid_2105 tfid_2106 tfid_2107 tfid_2108 tfid_2109 tfid_2110 tfid_2111 tfid_2112 tfid_2113 tfid_2114 tfid_2115 tfid_2116 tfid_2117 tfid_2118 tfid_2119 tfid_2120 tfid_2121 tfid_2122 tfid_2123 tfid_2124 tfid_2125 tfid_2126 tfid_2127 tfid_2128 tfid_2129 tfid_2130 tfid_2131 tfid_2132 tfid_2133 tfid_2134 tfid_2135 tfid_2136 tfid_2137 tfid_2138 tfid_2139 tfid_2140 tfid_2141 tfid_2142 tfid_2143 tfid_2144 tfid_2145 tfid_2146 tfid_2147 tfid_2148 tfid_2149 tfid_2150 tfid_2151 tfid_2152 tfid_2153 tfid_2154 tfid_2155 tfid_2156 tfid_2157 tfid_2158 tfid_2159 tfid_2160 tfid_2161 tfid_2162 tfid_2163 tfid_2164 tfid_2165 tfid_2166 tfid_2167 tfid_2168 tfid_2169 tfid_2170 tfid_2171 tfid_2172 tfid_2173 tfid_2174 tfid_2175 tfid_2176 tfid_2177 tfid_2178 tfid_2179 tfid_2180 tfid_2181 tfid_2182 tfid_2183 tfid_2184 tfid_2185 tfid_2186 tfid_2187 tfid_2188 tfid_2189 tfid_2190 tfid_2191 tfid_2192 tfid_2193 tfid_2194 tfid_2195 tfid_2196 tfid_2197 tfid_2198 tfid_2199 tfid_2200 tfid_2201 tfid_2202 tfid_2203 tfid_2204 tfid_2205 tfid_2206 tfid_2207 tfid_2208 tfid_2209 tfid_2210 tfid_2211 tfid_2212 tfid_2213 tfid_2214 tfid_2215 tfid_2216 tfid_2217 tfid_2218 tfid_2219 tfid_2220 tfid_2221 tfid_2222 tfid_2223 tfid_2224 tfid_2225 tfid_2226 tfid_2227 tfid_2228 tfid_2229 tfid_2230 tfid_2231 tfid_2232 tfid_2233 tfid_2234 tfid_2235 tfid_2236 tfid_2237 tfid_2238 tfid_2239 tfid_2240 tfid_2241 tfid_2242 tfid_2243 tfid_2244 tfid_2245 tfid_2246 tfid_2247 tfid_2248 tfid_2249 tfid_2250 tfid_2251 tfid_2252 tfid_2253 tfid_2254 tfid_2255 tfid_2256 tfid_2257 tfid_2258 tfid_2259 tfid_2260 tfid_2261 tfid_2262 tfid_2263 tfid_2264 tfid_2265 tfid_2266 tfid_2267 tfid_2268 tfid_2269 tfid_2270 tfid_2271 tfid_2272 tfid_2273 tfid_2274 tfid_2275 tfid_2276 tfid_2277 tfid_2278 tfid_2279 tfid_2280 tfid_2281 tfid_2282 tfid_2283 tfid_2284 tfid_2285 tfid_2286 tfid_2287 tfid_2288 tfid_2289 tfid_2290 tfid_2291 tfid_2292 tfid_2293 tfid_2294 tfid_2295 tfid_2296 tfid_2297 tfid_2298 tfid_2299 tfid_2300 tfid_2301 tfid_2302 tfid_2303 tfid_2304 tfid_2305 tfid_2306 tfid_2307 tfid_2308 tfid_2309 tfid_2310 tfid_2311 tfid_2312 tfid_2313 tfid_2314 tfid_2315 tfid_2316 tfid_2317 tfid_2318 tfid_2319 tfid_2320 tfid_2321 tfid_2322 tfid_2323 tfid_2324 tfid_2325 tfid_2326 tfid_2327 tfid_2328 tfid_2329 tfid_2330 tfid_2331 tfid_2332 tfid_2333 tfid_2334 tfid_2335 tfid_2336 tfid_2337 tfid_2338 tfid_2339 tfid_2340 tfid_2341 tfid_2342 tfid_2343 tfid_2344 tfid_2345 tfid_2346 tfid_2347 tfid_2348 tfid_2349 tfid_2350 tfid_2351 tfid_2352 tfid_2353 tfid_2354 tfid_2355 tfid_2356 tfid_2357 tfid_2358 tfid_2359 tfid_2360 tfid_2361 tfid_2362 tfid_2363 tfid_2364 tfid_2365 tfid_2366 tfid_2367 tfid_2368 tfid_2369 tfid_2370 tfid_2371 tfid_2372 tfid_2373 tfid_2374 tfid_2375 tfid_2376 tfid_2377 tfid_2378 tfid_2379 tfid_2380 tfid_2381 tfid_2382 tfid_2383 tfid_2384 tfid_2385 tfid_2386 tfid_2387 tfid_2388 tfid_2389 tfid_2390 tfid_2391 tfid_2392 tfid_2393 tfid_2394 tfid_2395 tfid_2396 tfid_2397 tfid_2398 tfid_2399 tfid_2400 tfid_2401 tfid_2402 tfid_2403 tfid_2404 tfid_2405 tfid_2406 tfid_2407 tfid_2408 tfid_2409 tfid_2410 tfid_2411 tfid_2412 tfid_2413 tfid_2414 tfid_2415 tfid_2416 tfid_2417 tfid_2418 tfid_2419 tfid_2420 tfid_2421 tfid_2422 tfid_2423 tfid_2424 tfid_2425 tfid_2426 tfid_2427 tfid_2428 tfid_2429 tfid_2430 tfid_2431 tfid_2432 tfid_2433 tfid_2434 tfid_2435 tfid_2436 tfid_2437 tfid_2438 tfid_2439 tfid_2440 tfid_2441 tfid_2442 tfid_2443 tfid_2444 tfid_2445 tfid_2446 tfid_2447 tfid_2448 tfid_2449 tfid_2450 tfid_2451 tfid_2452 tfid_2453 tfid_2454 tfid_2455 tfid_2456 tfid_2457 tfid_2458 tfid_2459 tfid_2460 tfid_2461 tfid_2462 tfid_2463 tfid_2464 tfid_2465 tfid_2466 tfid_2467 tfid_2468 tfid_2469 tfid_2470 tfid_2471 tfid_2472 tfid_2473 tfid_2474 tfid_2475 tfid_2476 tfid_2477 tfid_2478 tfid_2479 tfid_2480 tfid_2481 tfid_2482 tfid_2483 tfid_2484 tfid_2485 tfid_2486 tfid_2487 tfid_2488 tfid_2489 tfid_2490 tfid_2491 tfid_2492 tfid_2493 tfid_2494 tfid_2495 tfid_2496 tfid_2497 tfid_2498 tfid_2499 tfid_2500 tfid_2501 tfid_2502 tfid_2503 tfid_2504 tfid_2505 tfid_2506 tfid_2507 tfid_2508 tfid_2509 tfid_2510 tfid_2511 tfid_2512 tfid_2513 tfid_2514 tfid_2515 tfid_2516 tfid_2517 tfid_2518 tfid_2519 tfid_2520 tfid_2521 tfid_2522 tfid_2523 tfid_2524 tfid_2525 tfid_2526 tfid_2527 tfid_2528 tfid_2529 tfid_2530 tfid_2531 tfid_2532 tfid_2533 tfid_2534 tfid_2535 tfid_2536 tfid_2537 tfid_2538 tfid_2539 tfid_2540 tfid_2541 tfid_2542 tfid_2543 tfid_2544 tfid_2545 tfid_2546 tfid_2547 tfid_2548 tfid_2549 tfid_2550 tfid_2551 tfid_2552 tfid_2553 tfid_2554 tfid_2555 tfid_2556 tfid_2557 tfid_2558 tfid_2559 tfid_2560 tfid_2561 tfid_2562 tfid_2563 tfid_2564 tfid_2565 tfid_2566 tfid_2567 tfid_2568 tfid_2569 tfid_2570 tfid_2571 tfid_2572 tfid_2573 tfid_2574 tfid_2575 tfid_2576 tfid_2577 tfid_2578 tfid_2579 tfid_2580 tfid_2581 tfid_2582 tfid_2583 tfid_2584 tfid_2585 tfid_2586 tfid_2587 tfid_2588 tfid_2589 tfid_2590 tfid_2591 tfid_2592 tfid_2593 tfid_2594 tfid_2595 tfid_2596 tfid_2597 tfid_2598 tfid_2599 tfid_2600 tfid_2601 tfid_2602 tfid_2603 tfid_2604 tfid_2605 tfid_2606 tfid_2607 tfid_2608 tfid_2609 tfid_2610 tfid_2611 tfid_2612 tfid_2613 tfid_2614 tfid_2615 tfid_2616 tfid_2617 tfid_2618 tfid_2619 tfid_2620 tfid_2621 tfid_2622 tfid_2623 tfid_2624 tfid_2625 tfid_2626 tfid_2627 tfid_2628 tfid_2629 tfid_2630 tfid_2631 tfid_2632 tfid_2633 tfid_2634 tfid_2635 tfid_2636 tfid_2637 tfid_2638 tfid_2639 tfid_2640 tfid_2641 tfid_2642 tfid_2643 tfid_2644 tfid_2645 tfid_2646 tfid_2647 tfid_2648 tfid_2649 tfid_2650 tfid_2651 tfid_2652 tfid_2653 tfid_2654 tfid_2655 tfid_2656 tfid_2657 tfid_2658 tfid_2659 tfid_2660 tfid_2661 tfid_2662 tfid_2663 tfid_2664 tfid_2665 tfid_2666 tfid_2667 tfid_2668 tfid_2669 tfid_2670 tfid_2671 tfid_2672 tfid_2673 tfid_2674 tfid_2675 tfid_2676 tfid_2677 tfid_2678 tfid_2679 tfid_2680 tfid_2681 tfid_2682 tfid_2683 tfid_2684 tfid_2685 tfid_2686 tfid_2687 tfid_2688 tfid_2689 tfid_2690 tfid_2691 tfid_2692 tfid_2693 tfid_2694 tfid_2695 tfid_2696 tfid_2697 tfid_2698 tfid_2699 tfid_2700 tfid_2701 tfid_2702 tfid_2703 tfid_2704 tfid_2705 tfid_2706 tfid_2707 tfid_2708 tfid_2709 tfid_2710 tfid_2711 tfid_2712 tfid_2713 tfid_2714 tfid_2715 tfid_2716 tfid_2717 tfid_2718 tfid_2719 tfid_2720 tfid_2721 tfid_2722 tfid_2723 tfid_2724 tfid_2725 tfid_2726 tfid_2727 tfid_2728 tfid_2729 tfid_2730 tfid_2731 tfid_2732 tfid_2733 tfid_2734 tfid_2735 tfid_2736 tfid_2737 tfid_2738 tfid_2739 tfid_2740 tfid_2741 tfid_2742 tfid_2743 tfid_2744 tfid_2745 tfid_2746 tfid_2747 tfid_2748 tfid_2749 tfid_2750 tfid_2751 tfid_2752 tfid_2753 tfid_2754 tfid_2755 tfid_2756 tfid_2757 tfid_2758 tfid_2759 tfid_2760 tfid_2761 tfid_2762 tfid_2763 tfid_2764 tfid_2765 tfid_2766 tfid_2767 tfid_2768 tfid_2769 tfid_2770 tfid_2771 tfid_2772 tfid_2773 tfid_2774 tfid_2775 tfid_2776 tfid_2777 tfid_2778 tfid_2779 tfid_2780 tfid_2781 tfid_2782 tfid_2783 tfid_2784 tfid_2785 tfid_2786 tfid_2787 tfid_2788 tfid_2789 tfid_2790 tfid_2791 tfid_2792 tfid_2793 tfid_2794 tfid_2795 tfid_2796 tfid_2797 tfid_2798 tfid_2799 tfid_2800 tfid_2801 tfid_2802 tfid_2803 tfid_2804 tfid_2805 tfid_2806 tfid_2807 tfid_2808 tfid_2809 tfid_2810 tfid_2811 tfid_2812 tfid_2813 tfid_2814 tfid_2815 tfid_2816 tfid_2817 tfid_2818 tfid_2819 tfid_2820 tfid_2821 tfid_2822 tfid_2823 tfid_2824 tfid_2825 tfid_2826 tfid_2827 tfid_2828 tfid_2829 tfid_2830 tfid_2831 tfid_2832 tfid_2833 tfid_2834 tfid_2835 tfid_2836 tfid_2837 tfid_2838 tfid_2839 tfid_2840 tfid_2841 tfid_2842 tfid_2843 tfid_2844 tfid_2845 tfid_2846 tfid_2847 tfid_2848 tfid_2849 tfid_2850 tfid_2851 tfid_2852 tfid_2853 tfid_2854 tfid_2855 tfid_2856 tfid_2857 tfid_2858 tfid_2859 tfid_2860 tfid_2861 tfid_2862 tfid_2863 tfid_2864 tfid_2865 tfid_2866 tfid_2867 tfid_2868 tfid_2869 tfid_2870 tfid_2871 tfid_2872 tfid_2873 tfid_2874 tfid_2875 tfid_2876 tfid_2877 tfid_2878 tfid_2879 tfid_2880 tfid_2881 tfid_2882 tfid_2883 tfid_2884 tfid_2885 tfid_2886 tfid_2887 tfid_2888 tfid_2889 tfid_2890 tfid_2891 tfid_2892 tfid_2893 tfid_2894 tfid_2895 tfid_2896 tfid_2897 tfid_2898 tfid_2899 tfid_2900 tfid_2901 tfid_2902 tfid_2903 tfid_2904 tfid_2905 tfid_2906 tfid_2907 tfid_2908 tfid_2909 tfid_2910 tfid_2911 tfid_2912 tfid_2913 tfid_2914 tfid_2915 tfid_2916 tfid_2917 tfid_2918 tfid_2919 tfid_2920 tfid_2921 tfid_2922 tfid_2923 tfid_2924 tfid_2925 tfid_2926 tfid_2927 tfid_2928 tfid_2929 tfid_2930 tfid_2931 tfid_2932 tfid_2933 tfid_2934 tfid_2935 tfid_2936 tfid_2937 tfid_2938 tfid_2939 tfid_2940 tfid_2941 tfid_2942 tfid_2943 tfid_2944 tfid_2945 tfid_2946 tfid_2947 tfid_2948 tfid_2949 tfid_2950 tfid_2951 tfid_2952 tfid_2953 tfid_2954 tfid_2955 tfid_2956 tfid_2957 tfid_2958 tfid_2959 tfid_2960 tfid_2961 tfid_2962 tfid_2963 tfid_2964 tfid_2965 tfid_2966 tfid_2967 tfid_2968 tfid_2969 tfid_2970 tfid_2971 tfid_2972 tfid_2973 tfid_2974 tfid_2975 tfid_2976 tfid_2977 tfid_2978 tfid_2979 tfid_2980 tfid_2981 tfid_2982 tfid_2983 tfid_2984 tfid_2985 tfid_2986 tfid_2987 tfid_2988 tfid_2989 tfid_2990 tfid_2991 tfid_2992 tfid_2993 tfid_2994 tfid_2995 tfid_2996 tfid_2997 tfid_2998 tfid_2999 tfid_3000 tfid_3001 tfid_3002 tfid_3003 tfid_3004 tfid_3005 tfid_3006 tfid_3007 tfid_3008 tfid_3009 tfid_3010 tfid_3011 tfid_3012 tfid_3013 tfid_3014 tfid_3015 tfid_3016 tfid_3017 tfid_3018 tfid_3019 tfid_3020 tfid_3021 tfid_3022 tfid_3023 tfid_3024 tfid_3025 tfid_3026 tfid_3027 tfid_3028 tfid_3029 tfid_3030 tfid_3031 tfid_3032 tfid_3033 tfid_3034 tfid_3035 tfid_3036 tfid_3037 tfid_3038 tfid_3039 tfid_3040 tfid_3041 tfid_3042 tfid_3043 tfid_3044 tfid_3045 tfid_3046 tfid_3047 tfid_3048 tfid_3049 tfid_3050 tfid_3051 tfid_3052 tfid_3053 tfid_3054 tfid_3055 tfid_3056 tfid_3057 tfid_3058 tfid_3059 tfid_3060 tfid_3061 tfid_3062 tfid_3063 tfid_3064 tfid_3065 tfid_3066 tfid_3067 tfid_3068 tfid_3069 tfid_3070 tfid_3071 tfid_3072 tfid_3073 tfid_3074 tfid_3075 tfid_3076 tfid_3077 tfid_3078 tfid_3079 tfid_3080 tfid_3081 tfid_3082 tfid_3083 tfid_3084 tfid_3085 tfid_3086 tfid_3087 tfid_3088 tfid_3089 tfid_3090 tfid_3091 tfid_3092 tfid_3093 tfid_3094 tfid_3095 tfid_3096 tfid_3097 tfid_3098 tfid_3099 tfid_3100 tfid_3101 tfid_3102 tfid_3103 tfid_3104 tfid_3105 tfid_3106 tfid_3107 tfid_3108 tfid_3109 tfid_3110 tfid_3111 tfid_3112 tfid_3113 tfid_3114 tfid_3115 tfid_3116 tfid_3117 tfid_3118 tfid_3119 tfid_3120 tfid_3121 tfid_3122 tfid_3123 tfid_3124 tfid_3125 tfid_3126 tfid_3127 tfid_3128 tfid_3129 tfid_3130 tfid_3131 tfid_3132 tfid_3133 tfid_3134 tfid_3135 tfid_3136 tfid_3137 tfid_3138 tfid_3139 tfid_3140 tfid_3141 tfid_3142 tfid_3143 tfid_3144 tfid_3145 tfid_3146 tfid_3147 tfid_3148 tfid_3149 tfid_3150 tfid_3151 tfid_3152 tfid_3153 tfid_3154 tfid_3155 tfid_3156 tfid_3157 tfid_3158 tfid_3159 tfid_3160 tfid_3161 tfid_3162 tfid_3163 tfid_3164 tfid_3165 tfid_3166 tfid_3167 tfid_3168 tfid_3169 tfid_3170 tfid_3171 tfid_3172 tfid_3173 tfid_3174 tfid_3175 tfid_3176 tfid_3177 tfid_3178 tfid_3179 tfid_3180 tfid_3181 tfid_3182 tfid_3183 tfid_3184 tfid_3185 tfid_3186 tfid_3187 tfid_3188 tfid_3189 tfid_3190 tfid_3191 tfid_3192 tfid_3193 tfid_3194 tfid_3195 tfid_3196 tfid_3197 tfid_3198 tfid_3199 tfid_3200 tfid_3201 tfid_3202 tfid_3203 tfid_3204 tfid_3205 tfid_3206 tfid_3207 tfid_3208 tfid_3209 tfid_3210 tfid_3211 tfid_3212 tfid_3213 tfid_3214 tfid_3215 tfid_3216 tfid_3217 tfid_3218 tfid_3219 tfid_3220 tfid_3221 tfid_3222 tfid_3223 tfid_3224 tfid_3225 tfid_3226 tfid_3227 tfid_3228 tfid_3229 tfid_3230 tfid_3231 tfid_3232 tfid_3233 tfid_3234 tfid_3235 tfid_3236 tfid_3237 tfid_3238 tfid_3239 tfid_3240 tfid_3241 tfid_3242 tfid_3243 tfid_3244 tfid_3245 tfid_3246 tfid_3247 tfid_3248 tfid_3249 tfid_3250 tfid_3251 tfid_3252 tfid_3253 tfid_3254 tfid_3255 tfid_3256 tfid_3257 tfid_3258 tfid_3259 tfid_3260 tfid_3261 tfid_3262 tfid_3263 tfid_3264 tfid_3265 tfid_3266 tfid_3267 tfid_3268 tfid_3269 tfid_3270 tfid_3271 tfid_3272 tfid_3273 tfid_3274 tfid_3275 tfid_3276 tfid_3277 tfid_3278 tfid_3279 tfid_3280 tfid_3281 tfid_3282 tfid_3283 tfid_3284 tfid_3285 tfid_3286 tfid_3287 tfid_3288 tfid_3289 tfid_3290
feature_infos=[1:46] [0:44] [0:27] [0:22] [0:17] [0:16] [0:15] [0:15] [0:15] [0:15] [0:11] [0:7] [0:6] [0:6] [0:47] [0:59] [71:8015] [1:51] [17:1656] [24.348484848484848:8015] [1:51] [4.5303030303030303:1656] [1:8015] [1:51] [1:1656] [1:8015] [1:51] [1:1656] [1:8015] [1:51] [1:1656] [1:88] [1:59] [0:48] [0:28] [0:16] [0:10] [0:7] [67:5174] [14:1015] [37.719999999999999:3673] [8.3200000000000003:715] [15:3673] [1:715] [15:3673] [1:715] [15:5174] [2:1015] [150:1656] [139:1500] [97:1260] [70:864] [33:630] [14:529] [4:415] [1:307] [0:202] [0:116] [0:74] [0:39] [0:28] [0:19] [0:14] [8:100] [3.4473684210526314:5.867647058823529] [1.4779719309124379:5.3532454389666624] [2:4] [3:5] [4:8] [0:0.07932971339571683] [0:0.069958287008846584] [0:0.14779777767997443] [0:0.087690934305607357] [0:0.10479558855436412] [0:0.11538007651329532] [0:0.1205622660077196] [0:0.076750103883003448] [0:0.11357999928205186] [0:0.074631389066840761] [0:0.12067249186547746] [0:0.10612824439179629] [0:0.092484755491056433] [0:0.10151942148522909] [0:0.1095936114543868] [0:0.077221198399521351] [0:0.074882759799751328] [0:0.13087233164839723] [0:0.14779777767997443] [0:0.087690934305607357] [0:0.083043962845161232] [0:0.13097549590476329] [0:0.10479558855436412] [0:0.11538007651329532] [0:0.12793205088009563] [0:0.1205622660077196] [0:0.076750103883003448] [0:0.089030115042077917] [0:0.11357999928205186] [0:0.074631389066840761] [0:0.12566025290899749] [0:0.11072591756034385] [0:0.072290456025774025] [0:0.10890690900369464] [0:0.12067249186547746] [0:0.10612824439179629] [0:0.092484755491056433] [0:0.10151942148522909] [0:0.11495511046626673] [0:0.10956737589589695] [0:0.077221198399521351] [0:0.1049243430017411] [0:0.089920699268801502] [0:0.074882759799751328] [0:0.077898757253603956] [0:0.10066210612920592] [0:0.13087233164839723] [0:0.11996505920775961] [0:0.29829378541474572] [0:0.3040953622143433] [0:0.29288505228942274] [0:0.083778114668503378] [0:0.12590340822389839] [0:0.10175212993027309] [0:0.10972997088619257] [0:0.11618567746490703] [0:0.10735417519264327] [0:0.095335236634961365] [0:0.11041512841847534] [0:0.10931880337755916] [0:0.18810784025925448] [0:0.10934943916790155] [0:0.14342478415847193] [0:0.15129481372927817] [0:0.1826298445585828] [0:0.17964042391969126] [0:0.1093607169890542] [0:0.14387638145695741] [0:0.085534217761689957] [0:0.1046480714254491] [0:0.095126710395324318] [0:0.086778711723413046] [0:0.10472675294912027] [0:0.091901482538571444] [0:0.099698656580831324] [0:0.085507271432680693] [0:0.088999152869213935] [0:0.078890081755518079] [0:0.091964951402566275] [0:0.094951275937045845] [0:0.10156782678036844] [0:0.10046471648651079] [0:0.10133557298646154] [0:0.14746794213775255] [0:0.10424204609853646] [0:0.093184130973900117] [0:0.10650159707698995] [0:0.1088158324707668] [0:0.13445453632653909] [0:0.09960910723914429] [0:0.12008156363430683] [0:0.09113363294198723] [0:0.10290093634114168] [0:0.10174520072781211] [0:0.1087391255576345] [0:0.11599867461199526] [0:0.10512978073509387] [0:0.10723696374314062] [0:0.090060227054956171] [0:0.13948673855520793] [0:0.11857455865156581] [0:0.13065016395943513] [0:0.13143806163293559] [0:0.11357252480317807] [0:0.12744738021604524] [0:0.14370973579676094] [0:0.12997983602388816] [0:0.092200816268595678] [0:0.10912023034050373] [0:0.1083318981255247] [0:0.12317633633274348] [0:0.083486282823939759] [0:0.1230962757222023] [0:0.13054363528651222] [0:0.10322589087244109] [0:0.1221018860011976] [0:0.11677512766454137] [0:0.114758223389107] [0:0.12872144812606021] [0:0.10466182894921545] [0:0.10492121799262052] [0:0.079579672298075513] [0:0.10019002308735302] [0:0.1254749922866337] [0:0.090402326186308238] [0:0.071605877791733358] [0:0.084843914090640973] [0:0.11992614842000569] [0:0.1114378393332886] [0:0.12887228291160149] [0:0.10973526303832437] [0:0.18408429284098227] [0:0.10138514899566478] [0:0.12585674431107244] [0:0.12342671611763942] [0:0.13616820267428728] [0:0.10934723941227595] [0:0.085191251511969643] [0:0.12093835407957515] [0:0.11321747664434521] [0:0.09515447926139578] [0:0.14531949103059985] [0:0.10225098452742123] [0:0.12063586147370255] [0:0.13068563873786096] [0:0.10036247168439306] [0:0.097434446617211845] [0:0.1119012438421345] [0:0.13548200551565118] [0:0.13331305604475244] [0:0.10043981352634862] [0:0.11464001985253397] [0:0.093261034398014961] [0:0.14291637407393182] [0:0.12686555645936029] [0:0.093686631794365122] [0:0.076276315496360297] [0:0.11032702693059335] [0:0.11300795063362418] [0:0.13086427990952379] [0:0.092788418266943673] [0:0.10130297813178639] [0:0.057548809468104978] [0:0.12384328924750521] [0:0.13011855954526166] [0:0.10659712143865453] [0:0.11712304350123878] [0:0.13678398183028712] [0:0.14192386247040339] [0:0.12236554450665953] [0:0.10817494992379419] [0:0.11292231997009899] [0:0.10789128449128549] [0:0.075982455380132985] [0:0.10041855280508098] [0:0.13121611732193392] [0:0.11903257531446361] [0:0.1260575927065761] [0:0.074083571615716978] [0:0.075729027719777409] [0:0.079860090600887557] [0:0.0877268656158956] [0:0.088467438646194621] [0:0.1146443443074964] [0:0.065025685790237944] [0:0.10123171814193253] [0:0.098734884433925529] [0:0.0624172681587521] [0:0.081126951774974837] [0:0.067642623274927455] [0:0.12177107068216235] [0:0.095499272290278478] [0:0.099019544825081518] [0:0.071475134897705531] [0:0.089734866772130328] [0:0.12015131695355068] [0:0.089797705448876802] [0:0.095558972151836966] [0:0.07018453884952025] [0:0.076508265926006833] [0:0.079838037444735846] [0:0.085034448663132242] [0:0.073385776069276362] [0:0.10629591850691941] [0:0.084883335010489641] [0:0.08741798595426209] [0:0.10320248194611813] [0:0.077289390337998698] [0:0.062865589464607102] [0:0.064244506537596238] [0:0.072237933895425252] [0:0.13781308448949067] [0:0.1045452875543767] [0:0.097411724474653974] [0:0.11711858521262321] [0:0.095294958231188248] [0:0.098729486349306381] [0:0.12519855374618485] [0:0.12614989153833084] [0:0.065627134255291] [0:0.094357291011949992] [0:0.15830279874285708] [0:0.11960632559350846] [0:0.064669161295906219] [0:0.068790192173295933] [0:0.13089524125020272] [0:0.080349003241271644] [0:0.091177090226065335] [0:0.075827686891052209] [0:0.10776085406855147] [0:0.064516607752208452] [0:0.070206135295837718] [0:0.079816351495626756] [0:0.06897070330945175] [0:0.096979284543824595] [0:0.091834975966427951] [0:0.091983734515460935] [0:0.12108436467705275] [0:0.076583752011806269] [0:0.079046004734303857] [0:0.12156260596029225] [0:0.087630089471682826] [0:0.088304995343982465] [0:0.083393286708315958] [0:0.080592552848646248] [0:0.16077598396106105] [0:0.09996541597262143] [0:0.078828911435005561] [0:0.16504798555939901] [0:0.07374833497735897] [0:0.077635751018409069] [0:0.13842564496934781] [0:0.082768837819180083] [0:0.074227626096976779] [0:0.10303839762807132] [0:0.12588940768476573] [0:0.085831997777596744] [0:0.094537239431696563] [0:0.087992204759757289] [0:0.067128124453673915] [0:0.073391339180897908] [0:0.079918568898543985] [0:0.084340954074362179] [0:0.084713196152636033] [0:0.062486195421756409] [0:0.085101365240763893] [0:0.11564062328545172] [0:0.11692031637840593] [0:0.074362222873494088] [0:0.1072240204089573] [0:0.065604341797565829] [0:0.11552908265653276] [0:0.17012249870194132] [0:0.10671821303247327] [0:0.138345805788715] [0:0.080554001402146067] [0:0.069486434122100899] [0:0.079943047106854653] [0:0.072867688051258761] [0:0.073985827304023491] [0:0.12749330967983116] [0:0.075155410666179437] [0:0.06513126454193309] [0:0.12080885532197622] [0:0.13254424458699046] [0:0.11153087752497476] [0:0.071422340052172392] [0:0.064992979532286776] [0:0.087775081234738345] [0:0.093863668121324795] [0:0.09430215354638212] [0:0.079414577127773986] [0:0.06192264568962217] [0:0.084746646087770508] [0:0.095515369658622701] [0:0.10497290420366644] [0:0.061908218906872092] [0:0.10113814769344502] [0:0.068202168778226768] [0:0.067508005871267748] [0:0.068143815059119664] [0:0.089814983612026084] [0:0.10168539004200254] [0:0.10192371540425504] [0:0.068628319008391642] [0:0.089960751388735355] [0:0.064181113730143111] [0:0.071344594820991897] [0:0.12903616257605655] [0:0.1015787333113484] [0:0.070639467549262716] [0:0.080194988660758901] [0:0.08411826821449124] [0:0.066174864137521716] [0:0.1042176622504139] [0:0.096317414472349303] [0:0.11765680536821622] [0:0.063030748850158261] [0:0.080573422214092749] [0:0.088097809714298231] [0:0.07752519988585313] [0:0.082448738759073284] [0:0.088429596066383065] [0:0.10977918008251288] [0:0.09100760776410502] [0:0.15811575208317002] [0:0.068522420738617057] [0:0.078903031680923233] [0:0.062757032992971584] [0:0.067434241358800412] [0:0.11146107208582497] [0:0.087713192658888911] [0:0.096823939714295801] [0:0.096878894067738627] [0:0.30764839763423674] [0:0.32264017158657876] [0:0.16041651662293185] [0:0.17059272995936947] [0:0.097115187071059969] [0:0.11922384057247286] [0:0.11922384057247286] [0:0.083105232801793827] [0:0.10078621681223045] [0:0.11425837170023843] [0:0.099087150561091575] [0:0.10789184030670611] [0:0.12766074315077813] [0:0.13742873888916365] [0:0.11365069729750382] [0:0.13379680482249115] [0:0.11791691259616723] [0:0.11947905566604694] [0:0.12012591514358788] [0:0.12519606800047611] [0:0.096613061422661475] [0:0.10465507373918045] [0:0.13216232566576158] [0:0.13086764737210127] [0:0.10794140883457168] [0:0.11160932233781007] [0:0.10555501560919493] [0:0.10823588291928399] [0:0.10673100164972972] [0:0.14438891354855252] [0:0.14592066502789663] [0:0.087865610635290872] [0:0.15190707177524015] [0:0.12279471138499214] [0:0.12328052708599505] [0:0.11875572882531822] [0:0.11902626170311334] [0:0.085676156791520255] [0:0.083811446750216886] [0:0.088360015830737576] [0:0.089253750824556277] [0:0.10491779513529721] [0:0.10490574307633421] [0:0.12387868083794595] [0:0.11226293660404371] [0:0.11961496881237363] [0:0.10720109335007455] [0:0.10720109335007455] [0:0.072286163390125002] [0:0.096423177838098104] [0:0.099106073623021512] [0:0.099741152590187787] [0:0.10789720996596294] [0:0.124659789569282] [0:0.063633661945109915] [0:0.069538410560414016] [0:0.074374406604823542] [0:0.078821059320712317] [0:0.10297227477657121] [0:0.079405086263712982] [0:0.091985001791271268] [0:0.099752166343281309] [0:0.067986794353810928] [0:0.10100033650185289] [0:0.083979462892068174] [0:0.075136421708795906] [0:0.10491110698108944] [0:0.082099850013361245] [0:0.080675062045132279] [0:0.077735866201457587] [0:0.07970655603088922] [0:0.068459018068605257] [0:0.10765638725737475] [0:0.093934451852712014] [0:0.1219123172011134] [0:0.1224711807401013] [0:0.10088091302087702] [0:0.13290805421525387] [0:0.1315747528400846] [0:0.085429264893742779] [0:0.13659121614403841] [0:0.10206743580310509] [0:0.15697541055871286] [0:0.11392918654490325] [0:0.11968534804229354] [0:0.13319378722661135] [0:0.086629615154601172] [0:0.062700331667820255] [0:0.062700331667820255] [0:0.078998588773636275] [0:0.12990105724415107] [0:0.068201530979929204] [0:0.089161106495246084] [0:0.10061643484037815] [0:0.12110875534082141] [0:0.085395042721866266] [0:0.07931434788501944] [0:0.11462536992366323] [0:0.094515295242080841] [0:0.063625571034842843] [0:0.11180490960848424] [0:0.11158873147177398] [0:0.10220193669639471] [0:0.089582355699412086] [0:0.076271273851149388] [0:0.0816915450364709] [0:0.11410401946534408] [0:0.070959067463580897] [0:0.058967858098576631] [0:0.13365520045745297] [0:0.083979652343185385] [0:0.12442824677643592] [0:0.13794781997531053] [0:0.15766598364228543] [0:0.1760556964745314] [0:0.09335448260596102] [0:0.11490894816071208] [0:0.095049819118009707] [0:0.18090411913657242] [0:0.1704361651582047] [0:0.16328658285667677] [0:0.12873893585043986] [0:0.10073145692783618] [0:0.094726083415133999] [0:0.086850684526017491] [0:0.13855502544353995] [0:0.10141176112827523] [0:0.10964632758518311] [0:0.082919412151210237] [0:0.13933068998663761] [0:0.12319766102252079] [0:0.10645395265031547] [0:0.11304440010129735] [0:0.1144280690516663] [0:0.13728136942935817] [0:0.12360958215369429] [0:0.14647937628051783] [0:0.13952829939151054] [0:0.091714439925555377] [0:0.12064492076009048] [0:0.11606293157689344] [0:0.097250642717410962] [0:0.10705650275974253] [0:0.1107278048415571] [0:0.076733435239167924] [0:0.090381424325215953] [0:0.10433465724799874] [0:0.10841405565059931] [0:0.1034589363058005] [0:0.097925155611512035] [0:0.1117922307028317] [0:0.11086121872569403] [0:0.13484501187972103] [0:0.094963622468765246] [0:0.096514131073711359] [0:0.097363780296270172] [0:0.09503594520972021] [0:0.10015435137478385] [0:0.10456315379114332] [0:0.087068070364065345] [0:0.10916045801586743] [0:0.088249163349823717] [0:0.092175634435865947] [0:0.11989621951246615] [0:0.084061924123567819] [0:0.10652211198950663] [0:0.11318350196505082] [0:0.12951555000185072] [0:0.13884302556392289] [0:0.13400345669985356] [0:0.13872373717003084] [0:0.11803749009163463] [0:0.10261264954085718] [0:0.10148682596558739] [0:0.11847223556779055] [0:0.11847223556779055] [0:0.10030511952500613] [0:0.10213305147600887] [0:0.10061190605551007] [0:0.1344386704429214] [0:0.11089793804604012] [0:0.10269080470427132] [0:0.10824009956404464] [0:0.1214457763552733] [0:0.11204863153130477] [0:0.11591417665029112] [0:0.11063142507945108] [0:0.14200991213467271] [0:0.1547437927369133] [0:0.11779188641507915] [0:0.10136628298138271] [0:0.11009462217652065] [0:0.12467020703736467] [0:0.090926804446277432] [0:0.091297645360665036] [0:0.083585810297731711] [0:0.098104203777601234] [0:0.1048210450871994] [0:0.087104931512463526] [0:0.10867522810140341] [0:0.11049601855750385] [0:0.096222400830910867] [0:0.13286853702667642] [0:0.08946596272581625] [0:0.12974087378897128] [0:0.09268020749233831] [0:0.092925416449409964] [0:0.10165821788244664] [0:0.12506297904282432] [0:0.08303825443318523] [0:0.10587559209252181] [0:0.10118799682048468] [0:0.10239346174736214] [0:0.097971604220473962] [0:0.10040610985699948] [0:0.1082500223617285] [0:0.10885890046988907] [0:0.13416081048173067] [0:0.10777922131384844] [0:0.11858230332235895] [0:0.10581648905201417] [0:0.11141150940973421] [0:0.13079026893553705] [0:0.088112734981937682] [0:0.13153407671857509] [0:0.1294888849802629] [0:0.11041504950938077] [0:0.12281308696746093] [0:0.15739990195040274] [0:0.14054775045796356] [0:0.28100301967143126] [0:0.098837545690456038] [0:0.095613642910251914] [0:0.12342815233476491] [0:0.12186235727673578] [0:0.12226757291864176] [0:0.14021967252479811] [0:0.1689283613502473] [0:0.12525626781264271] [0:0.13336520230839344] [0:0.14177455373245296] [0:0.15030409470370509] [0:0.12931247299408619] [0:0.12941060223531192] [0:0.083091615525806878] [0:0.083713305663652357] [0:0.10705426485813987] [0:0.10460151640022895] [0:0.12168480296748717] [0:0.11842831342075572] [0:0.13370774304966518] [0:0.094461076350348921] [0:0.091757484537257211] [0:0.082373719476039553] [0:0.081322645912422734] [0:0.0822798153815614] [0:0.12938056070855816] [0:0.17687178760348113] [0:0.10144191162244121] [0:0.11119932527970726] [0:0.11882393108184131] [0:0.14444056662106844] [0:0.1320072198974474] [0:0.16184093782901093] [0:0.10688225935742111] [0:0.11402058071133564] [0:0.12701081617622165] [0:0.15264449132932889] [0:0.098334052763784721] [0:0.10781440829726474] [0:0.10124390075370597] [0:0.11436680837238621] [0:0.10120623653459009] [0:0.096314802417812012] [0:0.1215802662204901] [0:0.12001999323071254] [0:0.1625591870988059] [0:0.11900690183476573] [0:0.14066874759616388] [0:0.12024062737237333] [0:0.12369769415442869] [0:0.11755988292835787] [0:0.158993373939748] [0:0.12086974220438271] [0:0.12729019576734982] [0:0.08380068532232178] [0:0.083885066370885358] [0:0.12119873827957559] [0:0.060093517253077981] [0:0.061432766117529819] [0:0.078971551008290911] [0:0.087321513747956103] [0:0.11826916052108227] [0:0.11902917953340329] [0:0.10728805926817617] [0:0.1082226006569567] [0:0.21650393578345067] [0:0.17898004854930089] [0:0.11772894695348129] [0:0.10277704072036277] [0:0.11065676120200496] [0:0.10542007753913391] [0:0.13411061494128429] [0:0.14037956039522553] [0:0.096075919297684345] [0:0.18573529944774148] [0:0.18899936109693791] [0:0.1218082707457831] [0:0.11632551280586126] [0:0.10142127839553876] [0:0.16308675324391264] [0:0.11936032790213992] [0:0.13284661157297259] [0:0.1030747036672677] [0:0.12815148291029174] [0:0.10831975627676067] [0:0.15728814306141817] [0:0.15798002322741597] [0:0.15734604683368436] [0:0.11363647790362039] [0:0.11767908713082022] [0:0.10159838813410266] [0:0.087925303966962118] [0:0.089566410314855044] [0:0.099384376052349371] [0:0.18147260694373951] [0:0.090196324004888306] [0:0.11796081182569507] [0:0.095797443322194309] [0:0.11922120115914177] [0:0.099128947791993272] [0:0.14319397362442826] [0:0.095651820105041641] [0:0.10818405633576511] [0:0.10351488253940828] [0:0.10892795747617302] [0:0.10997104531519312] [0:0.1261510791709882] [0:0.13194532721085156] [0:0.16006529721998511] [0:0.23045003486071744] [0:0.096569052890632168] [0:0.11256386124821528] [0:0.11260178416308488] [0:0.2731687414488016] [0:0.15842605756021969] [0:0.11979518565012835] [0:0.13515062145782888] [0:0.14076517043081074] [0:0.11689958496852562] [0:0.15998003441161013] [0:0.10341238817507921] [0:0.1022554186748636] [0:0.085247712693235597] [0:0.090933173354866198] [0:0.081380322591114176] [0:0.09788082756755917] [0:0.0923299655832059] [0:0.10489965730416308] [0:0.11953255097665211] [0:0.11116513895573137] [0:0.13066804248503711] [0:0.1310615243296924] [0:0.10698225081355281] [0:0.11739875878030036] [0:0.058923354566850335] [0:0.10025098346679259] [0:0.059330873469396937] [0:0.081557120638999392] [0:0.1079023490301699] [0:0.10722630282421353] [0:0.11833302650490343] [0:0.18557747106313474] [0:0.10181276399904376] [0:0.10266333391065587] [0:0.13609273743802291] [0:0.13529080482362055] [0:0.14088885434445161] [0:0.14246552340273172] [0:0.12176243823957157] [0:0.10850580378767792] [0:0.11171228021899395] [0:0.10740070199270045] [0:0.12813418865918355] [0:0.1412084451438074] [0:0.073549979860276546] [0:0.094619759045531451] [0:0.10459491663725076] [0:0.10914376710727976] [0:0.11960713569952913] [0:0.095125880988983696] [0:0.09798202932673597] [0:0.12396053223375145] [0:0.17618656057019233] [0:0.11894272854507927] [0:0.12858481682063222] [0:0.13126742005073797] [0:0.13185351335679565] [0:0.13958507698685818] [0:0.14393571803292046] [0:0.11963533251307246] [0:0.071586057433562167] [0:0.070557145914531702] [0:0.10652472655344657] [0:0.098082031651771207] [0:0.089070692491522496] [0:0.092354773844049484] [0:0.10562388862752629] [0:0.078041765603620375] [0:0.089370944193731372] [0:0.10315535789782386] [0:0.10834893742570066] [0:0.091778477459271438] [0:0.092426462680461174] [0:0.067662571437961228] [0:0.093940007999385289] [0:0.096631307427265944] [0:0.079479667749349336] [0:0.10570591134881231] [0:0.10826188450674717] [0:0.08705673762216902] [0:0.095156698189919606] [0:0.064708535807396148] [0:0.11362765404004153] [0:0.086359557164624748] [0:0.07930676809981195] [0:0.068452460544882535] [0:0.106613903746525] [0:0.087397140068760162] [0:0.11740978407802442] [0:0.12387612227258635] [0:0.094112919150947674] [0:0.075106219893386936] [0:0.12453799195245138] [0:0.061960566626751805] [0:0.074731486967625951] [0:0.16543909377784755] [0:0.11554641744476303] [0:0.11851054513972863] [0:0.10486292084248626] [0:0.10918206101538844] [0:0.10149647355971113] [0:0.17173767354698433] [0:0.12104625591652048] [0:0.098763799620991036] [0:0.11626822350413131] [0:0.13613679104919085] [0:0.085944277124934465] [0:0.12069205365423083] [0:0.11004414241691128] [0:0.10396263764534808] [0:0.060482597548691945] [0:0.10263616407485282] [0:0.08095063893898749] [0:0.10204732731205865] [0:0.12493574619778218] [0:0.095916333161866013] [0:0.10863193420167362] [0:0.095615933107927237] [0:0.066945389670768393] [0:0.11207928209114801] [0:0.12207777472396177] [0:0.099380721121226048] [0:0.13451784315479035] [0:0.080913426531592267] [0:0.095910886658058969] [0:0.11381186370972764] [0:0.1026447829115045] [0:0.10300893069397285] [0:0.06885393440242403] [0:0.12236852670559972] [0:0.071449389712101644] [0:0.080043465936620151] [0:0.069740718942553626] [0:0.097844549506163808] [0:0.095451628455337098] [0:0.11229642839469998] [0:0.10947801656541105] [0:0.12859454593592717] [0:0.1051094457718635] [0:0.056985527947113222] [0:0.097091699234906639] [0:0.11217580517893867] [0:0.12282370584116924] [0:0.072625672669289321] [0:0.10597254293229758] [0:0.11137607374310241] [0:0.082494799220494949] [0:0.11354578846343058] [0:0.071060117062082206] [0:0.11025440149103616] [0:0.10868473197347736] [0:0.078218670071754037] [0:0.10343044700677589] [0:0.1074273666919778] [0:0.11483406973196431] [0:0.11923378143249691] [0:0.13496327106864353] [0:0.10412874499556249] [0:0.1310838338249907] [0:0.097325290771072631] [0:0.084111339266026944] [0:0.11653104080602368] [0:0.076188277373334987] [0:0.14605113779301954] [0:0.12417461248539793] [0:0.10124298078881044] [0:0.093630300454579443] [0:0.08740288038181139] [0:0.081094382480692048] [0:0.11297781299156942] [0:0.065156322452752172] [0:0.14922658511201778] [0:0.067084504561763555] [0:0.11577708033239099] [0:0.15101114389450992] [0:0.10250410981841128] [0:0.083422536459154928] [0:0.11657761839515823] [0:0.083470171145639704] [0:0.097968957180044294] [0:0.11132204777921668] [0:0.097026068408887792] [0:0.099207250493608901] [0:0.08901138467538583] [0:0.13480945268201996] [0:0.081398626142000566] [0:0.063269072432508441] [0:0.10525331984274855] [0:0.084781201062608946] [0:0.11816726407265203] [0:0.094971589564017328] [0:0.11897822087779138] [0:0.13942832784777479] [0:0.089677355446396628] [0:0.11186068565005995] [0:0.101011909603377] [0:0.07095921624097995] [0:0.1251176693394781] [0:0.08902390131618064] [0:0.067524381960200164] [0:0.085412026459121965] [0:0.10353498079051976] [0:0.12766850934587359] [0:0.085359215894597273] [0:0.13467885663942383] [0:0.094393851651318944] [0:0.12997630306370841] [0:0.14647446589105917] [0:0.096858502637173105] [0:0.099497020242083817] [0:0.073155911392831063] [0:0.11720522877424654] [0:0.1229998743598839] [0:0.089525571634774759] [0:0.095568284880241161] [0:0.134265418242699] [0:0.063722772040687742] [0:0.087691598445799254] [0:0.067645039496912862] [0:0.12259569477152965] [0:0.10939622206267928] [0:0.1064635978646256] [0:0.093351235040963015] [0:0.1103627472325277] [0:0.06339495971910071] [0:0.12143952411352799] [0:0.12136396541994868] [0:0.070516389133211732] [0:0.11715321932833879] [0:0.060822609553145723] [0:0.14799339388992047] [0:0.061141896554021989] [0:0.089034596051428175] [0:0.11472136553321906] [0:0.086051083893497804] [0:0.12981583560195092] [0:0.10178338140501922] [0:0.12154431805357761] [0:0.11490691805106974] [0:0.12866176854376715] [0:0.061782502184893187] [0:0.065588062273267841] [0:0.10357688991338447] [0:0.075278969583942049] [0:0.12808627326757949] [0:0.13073375579682392] [0:0.11177279293632843] [0:0.071314114796539596] [0:0.10446830854016712] [0:0.13146986305317346] [0:0.13812918539595875] [0:0.13492097306186368] [0:0.067305380079204391] [0:0.11183749197895769] [0:0.097516287445057762] [0:0.11566592698537319] [0:0.11077299747401256] [0:0.13193209081098792] [0:0.088847236168257196] [0:0.0719924641821824] [0:0.13705103358994938] [0:0.065513437994580204] [0:0.092895573839075082] [0:0.098351113729256812] [0:0.12936451436520219] [0:0.13113876215927192] [0:0.08483286286073044] [0:0.10471448266765461] [0:0.10015689583862608] [0:0.09519883161494852] [0:0.11786262185621335] [0:0.090383720746455232] [0:0.071404835260386212] [0:0.099730251301033412] [0:0.093161119700541709] [0:0.14180818510386076] [0:0.11135237322566428] [0:0.11021617489926867] [0:0.19519667934894896] [0:0.19536685796435682] [0:0.067172975756879111] [0:0.11006164857277402] [0:0.074893557354699561] [0:0.10684077644473124] [0:0.10314461578284211] [0:0.064160298524819012] [0:0.16145372213613768] [0:0.12696686510504557] [0:0.097250258998814565] [0:0.11104836129942351] [0:0.13512719557174402] [0:0.082915974232126252] [0:0.10779947026972014] [0:0.15009764458392849] [0:0.089892971739100824] [0:0.12661499371721899] [0:0.13453362164765784] [0:0.12444202471606247] [0:0.10356376916081368] [0:0.11306003471760979] [0:0.10668043455157945] [0:0.068777755794119586] [0:0.15177666910280194] [0:0.13827350072547254] [0:0.1152086138980276] [0:0.063605234484704981] [0:0.14746223761690913] [0:0.075850373008284067] [0:0.076776764520397126] [0:0.071146546760046434] [0:0.11391176059038462] [0:0.10447470372818538] [0:0.11057509278833069] [0:0.10891584091053703] [0:0.12327506648775963] [0:0.13433230315910455] [0:0.072762126262855734] [0:0.10796845895845059] [0:0.069057762353247537] [0:0.090440845204202078] [0:0.11302714819116276] [0:0.10788474166888185] [0:0.096328091443037792] [0:0.070250742999533308] [0:0.090144369180190947] [0:0.089256243896400078] [0:0.12839840220470464] [0:0.091554218287658126] [0:0.12794035279600546] [0:0.073392550625256153] [0:0.085964715498902722] [0:0.081548378789754475] [0:0.11609236816764905] [0:0.15188952371610634] [0:0.08870857218944532] [0:0.095350923767014276] [0:0.094059182212145556] [0:0.1095236354049223] [0:0.095613901808120572] [0:0.078749736091412129] [0:0.066139976086969934] [0:0.057937764759426892] [0:0.079489927846794747] [0:0.11416117842532453] [0:0.13102940247187725] [0:0.10815500401904474] [0:0.11242292977095655] [0:0.061775164735769432] [0:0.11276125270213462] [0:0.10519126824192566] [0:0.093624884486681811] [0:0.10507078576679049] [0:0.090471394510083666] [0:0.16059713585291505] [0:0.10663670598231512] [0:0.079021988570546459] [0:0.087387036414120281] [0:0.12026560982672685] [0:0.14264431926331142] [0:0.13852944593138095] [0:0.15143484763855783] [0:0.065074908817331439] [0:0.12793652549853432] [0:0.077120921166614551] [0:0.10528319947593577] [0:0.079924809585686304] [0:0.11916199929685134] [0:0.1546402796552688] [0:0.06905787695028956] [0:0.058895909957335957] [0:0.1258859510863386] [0:0.09374954882272496] [0:0.12148564934745532] [0:0.075450428173742687] [0:0.11881362456530692] [0:0.16946410457501865] [0:0.070052624456384452] [0:0.097384811636002766] [0:0.10174382527168722] [0:0.12456075120670868] [0:0.11273089022404462] [0:0.11110599643193204] [0:0.1185582655613226] [0:0.068402229837026582] [0:0.09112563428456473] [0:0.11852150033672786] [0:0.10937318655406396] [0:0.09730703612100719] [0:0.084991287778918442] [0:0.11407526877147847] [0:0.14162109946233475] [0:0.12547747531024422] [0:0.10508977650775361] [0:0.1097543690572273] [0:0.072417469272618037] [0:0.10031832882508933] [0:0.10246376658851981] [0:0.11794622075373065] [0:0.10567104652026685] [0:0.11288443815914999] [0:0.12143950072349621] [0:0.11490497363156228] [0:0.12387944549016823] [0:0.11226943630742048] [0:0.10066613565926255] [0:0.10849890657008822] [0:0.065000839472212163] [0:0.064517727955952273] [0:0.067273260263214341] [0:0.076693964516955163] [0:0.071361359567095412] [0:0.077711656273923277] [0:0.10385519741838159] [0:0.075616948990128996] [0:0.060826992647686873] [0:0.12886621449964808] [0:0.11967431820602957] [0:0.079005386028613261] [0:0.063744809128588584] [0:0.08489195564452312] [0:0.070365700549669924] [0:0.072042151784132716] [0:0.07706435250826521] [0:0.069420927924623468] [0:0.089331778574482379] [0:0.11484720601490678] [0:0.067603970281356812] [0:0.11774260171370225] [0:0.088192761020682395] [0:0.091329803439410162] [0:0.058243250837545224] [0:0.081158606221669732] [0:0.065262620436580751] [0:0.060954316385653892] [0:0.10196209572239721] [0:0.12526661499588476] [0:0.085034646140958264] [0:0.081374816954849757] [0:0.099157740654406246] [0:0.094031745971522931] [0:0.088944979105263042] [0:0.083797795724164181] [0:0.1394226907037095] [0:0.09547621158155789] [0:0.094939905084929263] [0:0.092115965504913563] [0:0.11877761644227272] [0:0.088071551584177912] [0:0.13463659855887067] [0:0.11001423514354451] [0:0.081749864202121353] [0:0.14946533000782625] [0:0.11230565054825052] [0:0.077821742566047028] [0:0.076661129071202205] [0:0.11627427569456172] [0:0.12519263427109084] [0:0.1845023039495258] [0:0.18714048139294509] [0:0.12404742657406588] [0:0.12503483885478556] [0:0.052881669707427061] [0:0.12250068285564776] [0:0.10462169422253351] [0:0.10222124206995524] [0:0.10689091533933764] [0:0.10216422594274319] [0:0.1064670898797393] [0:0.070468053859276028] [0:0.10230034474134581] [0:0.12876045216690102] [0:0.084809535478709799] [0:0.09390337370027689] [0:0.13329709683075622] [0:0.081054615439332733] [0:0.098171914174695604] [0:0.10014341750863738] [0:0.14215186713614403] [0:0.095677721601604732] [0:0.11509126321569539] [0:0.13808636237359689] [0:0.069513245534186308] [0:0.082017524200837494] [0:0.10609352163334705] [0:0.10137682265142595] [0:0.10012379848552805] [0:0.12712651496519559] [0:0.086507101946883727] [0:0.093536027810910666] [0:0.11397179465694393] [0:0.12979510824186272] [0:0.12863968990694288] [0:0.1136045659157183] [0:0.1502428450123936] [0:0.067772903698267259] [0:0.073486649319080083] [0:0.094165668341362252] [0:0.095289133684795316] [0:0.079434978575811735] [0:0.14528112729962755] [0:0.097905820335921087] [0:0.11816443821566787] [0:0.10817287211249357] [0:0.096801994580981349] [0:0.10236848425482989] [0:0.093047091272694504] [0:0.089269122287952293] [0:0.13331798002276565] [0:0.13668110385907292] [0:0.1076467413162618] [0:0.090640509433093916] [0:0.13395588415695853] [0:0.11061336516882217] [0:0.11156350611809791] [0:0.10985854205821496] [0:0.1205539299340056] [0:0.13639645579204782] [0:0.11442321818334451] [0:0.11375273970931019] [0:0.11603051289538241] [0:0.11977997158292419] [0:0.13161693083350925] [0:0.10498268259130906] [0:0.15031388226054429] [0:0.073919373056336585] [0:0.060963750865163556] [0:0.076485211822969218] [0:0.068874519095316791] [0:0.068676434231801711] [0:0.084161880376221812] [0:0.065197370147581216] [0:0.10760686325374463] [0:0.11044077394632783] [0:0.075288674614051074] [0:0.066185545132931969] [0:0.066301208710401738] [0:0.069062471722550506] [0:0.11894607418222285] [0:0.065489786072624942] [0:0.083887288252395692] [0:0.085352728084757384] [0:0.061853729682079972] [0:0.097222573938655826] [0:0.15297316344994] [0:0.16450728438140066] [0:0.13312330531361616] [0:0.10888578484891159] [0:0.060207210520186259] [0:0.06241214663449323] [0:0.099815029565066771] [0:0.054601643637842139] [0:0.072279197576798057] [0:0.05597503388751536] [0:0.097197402032958347] [0:0.10465080275864438] [0:0.11484329429852186] [0:0.098874226342166083] [0:0.12101359794194824] [0:0.1181759066860839] [0:0.081916598213988057] [0:0.1469527993918876] [0:0.12803575023415487] [0:0.085567740579660503] [0:0.12348516333267287] [0:0.10518415309946705] [0:0.075144356936498402] [0:0.071607409987378967] [0:0.076152991809466372] [0:0.10469361076192965] [0:0.1035008904612495] [0:0.10079400965169293] [0:0.069140904387133745] [0:0.1016265551179911] [0:0.10831326227605551] [0:0.089340380888082202] [0:0.13244264505893963] [0:0.078847318317901746] [0:0.12529079784010813] [0:0.092069458923733472] [0:0.15444452284005614] [0:0.087141393818105969] [0:0.07309651096471316] [0:0.10854930312802627] [0:0.1363269136389216] [0:0.09155965398789985] [0:0.11007787146411833] [0:0.11642365725885762] [0:0.088499902513160159] [0:0.085375743339558233] [0:0.1082944358556661] [0:0.10477952446353254] [0:0.11948174584539623] [0:0.10539663154598555] [0:0.077879209335538394] [0:0.098495979735374606] [0:0.12104080771391773] [0:0.10238213194940392] [0:0.10016698274623803] [0:0.069499499029665707] [0:0.10773489351855103] [0:0.092194208369803743] [0:0.10015689583862608] [0:0.092724272992415938] [0:0.13748336982985901] [0:0.13876975152485471] [0:0.098646178112436853] [0:0.12187121921718791] [0:0.16504217422658668] [0:0.11640566637525847] [0:0.096785479572551805] [0:0.11368319562600929] [0:0.12407888458238657] [0:0.066939893132304057] [0:0.093863129028141035] [0:0.085068905801002889] [0:0.092230861738955686] [0:0.10670552249882402] [0:0.11780988979033537] [0:0.09990295465326629] [0:0.14152425411487038] [0:0.11123996858645004] [0:0.11599707533023436] [0:0.11199499251223032] [0:0.085482584876607398] [0:0.096429492106084952] [0:0.11595652191779342] [0:0.10457024382277474] [0:0.084383945442577435] [0:0.092224244493645205] [0:0.081472395096029146] [0:0.067754338393199651] [0:0.096138532816229721] [0:0.089357151918381283] [0:0.080306878405285193] [0:0.10870337059798195] [0:0.087360465138109786] [0:0.13919817637295009] [0:0.13410201787251441] [0:0.096988806712388576] [0:0.08956606860132732] [0:0.064068429387349468] [0:0.13920874166048022] [0:0.11293636368598456] [0:0.13368537128654831] [0:0.13355538124600949] [0:0.0825533058754645] [0:0.07519734314784117] [0:0.078532403831476139] [0:0.09411605273463973] [0:0.12980528927959895] [0:0.1316044562921537] [0:0.11994646289830094] [0:0.12032578034732339] [0:0.12850925865408308] [0:0.10344513797778224] [0:0.060793244579093478] [0:0.15362506000841528] [0:0.11044269181057763] [0:0.068335601754302311] [0:0.11172430454652713] [0:0.074565757324647264] [0:0.1527786348984746] [0:0.078502842451646002] [0:0.10621186421517069] [0:0.11177275167450271] [0:0.11535600110172743] [0:0.14399491560975719] [0:0.12889430780465477] [0:0.11642267436732061] [0:0.080415913822301635] [0:0.080652429076414581] [0:0.096770470464484851] [0:0.12637019618041342] [0:0.074335056419900472] [0:0.07634901391949038] [0:0.099170355973774202] [0:0.075504890021373228] [0:0.10178800635253271] [0:0.17064497041961663] [0:0.086834298833058654] [0:0.15599119882792639] [0:0.10610977856819849] [0:0.10690883077720142] [0:0.09894725619056241] [0:0.13732488143664426] [0:0.068629034175400228] [0:0.093838694094992056] [0:0.105673543756791] [0:0.078910009125110675] [0:0.071981149836495881] [0:0.071925734054515258] [0:0.16063871126507404] [0:0.13069350363629628] [0:0.07986803766551312] [0:0.12354715704888877] [0:0.10818333849185538] [0:0.1689450710609875] [0:0.088762566758767703] [0:0.078884201066782275] [0:0.065790452974309258] [0:0.11867383817245571] [0:0.083985914182681684] [0:0.098418519026540488] [0:0.10423646008127166] [0:0.11545009228671932] [0:0.14619134051356067] [0:0.099288072725175452] [0:0.10525233224722923] [0:0.092993175235283526] [0:0.090729312555702477] [0:0.080058428306126347] [0:0.10106219622954699] [0:0.10261756278523822] [0:0.12344277701774739] [0:0.06559164780686319] [0:0.067172497282260685] [0:0.11995606162825942] [0:0.074440003924234818] [0:0.080144944384235375] [0:0.12398713116816179] [0:0.065089315066603273] [0:0.11422085383731137] [0:0.10302420433901222] [0:0.16312350295640937] [0:0.083814848235794312] [0:0.092658826557167173] [0:0.073580338854572269] [0:0.078874641638826473] [0:0.12734937548282005] [0:0.12960754460586385] [0:0.11282662404085723] [0:0.09832542834725426] [0:0.10885508051134168] [0:0.11711151083415078] [0:0.12389039710042028] [0:0.069612118294645933] [0:0.10930916667059562] [0:0.087115950854171578] [0:0.10650324418793986] [0:0.090282316321563791] [0:0.10971528531742002] [0:0.10719294338717432] [0:0.09114646389584298] [0:0.083297241291173399] [0:0.10390966933400288] [0:0.10218611219030567] [0:0.08948069907038235] [0:0.10368484188749046] [0:0.089705341171311861] [0:0.089810602182239671] [0:0.083318095707176285] [0:0.062264239910687552] [0:0.11940816685890103] [0:0.10633716686302765] [0:0.092184886813437714] [0:0.10356319127515247] [0:0.086938166986752885] [0:0.087800072622405384] [0:0.11573846404567224] [0:0.12366905299947326] [0:0.075266699055418412] [0:0.095632504684354802] [0:0.11365134902157034] [0:0.1247238536213186] [0:0.11343536344679174] [0:0.097126245538152134] [0:0.11159482577304559] [0:0.13249880684250473] [0:0.063368266716729654] [0:0.095467615474035525] [0:0.093319763265876113] [0:0.099819225078381466] [0:0.10289786350682821] [0:0.094491843538173442] [0:0.1259987510336554] [0:0.1542510025878279] [0:0.10336438898641508] [0:0.092143111693948995] [0:0.11014381911935692] [0:0.11691005594769635] [0:0.074603062084965158] [0:0.11651578884335499] [0:0.094256674788090786] [0:0.099331051869010117] [0:0.13366868085191227] [0:0.059790732948355671] [0:0.084252489397768721] [0:0.082557277452825845] [0:0.14636475686168451] [0:0.098686637661551085] [0:0.084857854058963275] [0:0.10593569568418236] [0:0.10022234512476633] [0:0.1016405220658885] [0:0.11244882336078357] [0:0.11988162327322122] [0:0.1353303423417879] [0:0.063519287284644246] [0:0.1301845018774126] [0:0.067978847634872247] [0:0.1077279652452874] [0:0.11166259294029256] [0:0.12319511065213003] [0:0.078038482505864926] [0:0.082388245864452966] [0:0.12724482149333718] [0:0.078162465990426214] [0:0.16540806317700152] [0:0.069550202700121438] [0:0.13213486138945249] [0:0.096966377405936124] [0:0.10243979141748555] [0:0.11159427590998935] [0:0.12840120028559912] [0:0.10506775567434298] [0:0.10327161149639301] [0:0.094526841536651335] [0:0.15328941348954089] [0:0.12110058092441352] [0:0.11767626896323757] [0:0.062866896839643777] [0:0.089710144839849307] [0:0.087198935327832905] [0:0.081821414092749276] [0:0.080546551772779126] [0:0.091863703170294866] [0:0.1040651838903924] [0:0.083912697894848884] [0:0.07312335762532364] [0:0.090306433395402314] [0:0.096882120754917048] [0:0.10870848979458304] [0:0.079009995963457827] [0:0.090778895849750921] [0:0.10738858420581221] [0:0.078624075367686425] [0:0.061260045767543396] [0:0.10398151441002715] [0:0.13748598393399386] [0:0.076291999649068562] [0:0.099400246618061405] [0:0.10117170058027479] [0:0.084220921109103383] [0:0.086521115203297153] [0:0.081843436976035785] [0:0.10402929158501453] [0:0.083077436329520277] [0:0.071679806063144988] [0:0.097675874413853406] [0:0.14340935833413626] [0:0.11076786076741973] [0:0.12913983779489047] [0:0.12454546719740653] [0:0.0659208863514196] [0:0.076335694462198442] [0:0.10607536770989016] [0:0.10144571906975759] [0:0.12001848583378397] [0:0.11794115561531389] [0:0.082272064645440027] [0:0.084875682770934088] [0:0.093238555217420124] [0:0.083715046708742677] [0:0.088867119777020109] [0:0.06083387759443059] [0:0.074313998066691728] [0:0.097927508944748415] [0:0.074608427082166237] [0:0.067650806267693472] [0:0.080475306556147153] [0:0.089959697931418253] [0:0.09615826733226214] [0:0.11390573724593135] [0:0.090527573591922608] [0:0.13394309191967657] [0:0.11046697925478513] [0:0.072489805823695214] [0:0.096431304633256887] [0:0.10995634565926779] [0:0.1051790863238569] [0:0.15581681987007168] [0:0.099426624238401401] [0:0.11182283406697142] [0:0.067544398049946011] [0:0.094199810381772747] [0:0.074926573493488469] [0:0.11277212307338504] [0:0.088088024001032578] [0:0.094704159908259519] [0:0.11253581383594591] [0:0.10315996869644399] [0:0.12263254512642888] [0:0.15254928125679709] [0:0.11235978859214388] [0:0.1025768535085322] [0:0.10694450729876888] [0:0.12574134922269956] [0:0.07476517773571259] [0:0.089758134154417898] [0:0.08448940125183356] [0:0.11851257537712979] [0:0.098735289148023694] [0:0.090338908276993299] [0:0.095675741666311528] [0:0.081829399785850576] [0:0.11504481357092786] [0:0.084582424867077358] [0:0.09175038669422636] [0:0.0837635257505185] [0:0.091345736468335909] [0:0.11217207498953363] [0:0.084041354828313486] [0:0.055874392808642218] [0:0.095355215923734596] [0:0.10392331393694891] [0:0.081597637457692163] [0:0.083162450826030562] [0:0.13343231904493941] [0:0.09325970619908093] [0:0.10368761153615676] [0:0.10420881069875747] [0:0.098772558706687982] [0:0.10278988952677431] [0:0.066041271761969153] [0:0.093891117444099989] [0:0.083136435998503927] [0:0.07236916033717497] [0:0.062774212770423693] [0:0.093478074602588085] [0:0.09174226411091406] [0:0.12072733478491413] [0:0.085300962226139795] [0:0.10184459349518027] [0:0.10244884645525093] [0:0.071250661186305506] [0:0.094063652869687334] [0:0.12622508395560159] [0:0.078897860636977318] [0:0.082319711272061932] [0:0.12645321561335121] [0:0.14767411450118778] [0:0.080017508202203436] [0:0.096638599877816783] [0:0.13481745617044749] [0:0.075847912550261146] [0:0.13224976008990175] [0:0.10818786608186379] [0:0.066763478448641486] [0:0.14601080364358254] [0:0.11509444816359664] [0:0.095996249758559027] [0:0.10499621050884944] [0:0.11034981601251452] [0:0.087188771341552812] [0:0.21177596571560714] [0:0.11250039568348102] [0:0.12407426725084403] [0:0.12140649761972842] [0:0.12371952194056417] [0:0.10159258429681679] [0:0.12179330391029967] [0:0.086102041667538987] [0:0.120308290260662] [0:0.064167350601409878] [0:0.093982073320361584] [0:0.088776989816339705] [0:0.094866142066215783] [0:0.11337843240680232] [0:0.11542232640600576] [0:0.12048427936881566] [0:0.073926338975483688] [0:0.082421733015560883] [0:0.12980861081298442] [0:0.1311414908877919] [0:0.078252304660935773] [0:0.10460354020195678] [0:0.089398566658855136] [0:0.12713638464206703] [0:0.081188473508941636] [0:0.084564772008452249] [0:0.14427673501213364] [0:0.16516910670545334] [0:0.074311497124458697] [0:0.10553384155740027] [0:0.12539565202056985] [0:0.097220567275188255] [0:0.11994532252437412] [0:0.10748114233067936] [0:0.076400443232176304] [0:0.12416676378483636] [0:0.083266163933471402] [0:0.059861212475427562] [0:0.069215696297454096] [0:0.14254515703166598] [0:0.072552325336422391] [0:0.095772396434873744] [0:0.074761103511196303] [0:0.099260763383427278] [0:0.11333111439345574] [0:0.093211483028241907] [0:0.15148432117122235] [0:0.11474427583186171] [0:0.13198937385773785] [0:0.090759422608745977] [0:0.064504451777884414] [0:0.090953487985111964] [0:0.1285628824613157] [0:0.10706483845460051] [0:0.067675317864967832] [0:0.11431901751609314] [0:0.14591286735295808] [0:0.1421209401693426] [0:0.077010565596688452] [0:0.11157691565493603] [0:0.095595096938592389] [0:0.11871161345936684] [0:0.11329849076450232] [0:0.085533702887561888] [0:0.11690368012468223] [0:0.10666781986951253] [0:0.12679218807217393] [0:0.063310248116169823] [0:0.078529694122167856] [0:0.097788262334588191] [0:0.10737010277704696] [0:0.087569898788815728] [0:0.10994024060337956] [0:0.062872367058921796] [0:0.10040182473239023] [0:0.107418635775776] [0:0.074327000670704566] [0:0.10554686502714107] [0:0.15013157209414763] [0:0.072259356956122386] [0:0.07326214874152337] [0:0.12734704707346262] [0:0.061931562575030276] [0:0.105482270778221] [0:0.11689792874083334] [0:0.13411246487348924] [0:0.086634116082229443] [0:0.093437056224741591] [0:0.069001657009158834] [0:0.12751902536048371] [0:0.10632843727519609] [0:0.059961381730127092] [0:0.11362511396453608] [0:0.10717033666544065] [0:0.067229935403271893] [0:0.099332543867449469] [0:0.077884319253415657] [0:0.11218407135425311] [0:0.088969219119942058] [0:0.077213821963996995] [0:0.076210423595706261] [0:0.08154266614709392] [0:0.088068556968098635] [0:0.10774600716206884] [0:0.086021663565649831] [0:0.13655809545349365] [0:0.096843402840242954] [0:0.088414074018583741] [0:0.072325063060286299] [0:0.080908136088860161] [0:0.098563843092705883] [0:0.11414612432113506] [0:0.061102188755018598] [0:0.062055127539753535] [0:0.1582602269963542] [0:0.085448268317042372] [0:0.10165644438756359] [0:0.1008030362892286] [0:0.13452836763040937] [0:0.12542692778416886] [0:0.066551806664682481] [0:0.086011653316185446] [0:0.11732133193628599] [0:0.088160290314591133] [0:0.12006440414096278] [0:0.13318116312148329] [0:0.08236771306471552] [0:0.10801879636201088] [0:0.10102894337228781] [0:0.106629952380807] [0:0.12537720732585331] [0:0.10156775777294072] [0:0.097433879327127187] [0:0.11128095582889036] [0:0.12192901203028551] [0:0.10694741447610123] [0:0.11682579319388674] [0:0.10768617881890517] [0:0.077883062232922073] [0:0.082246234487870162] [0:0.11970530127067214] [0:0.091982752829393374] [0:0.086259104235569539] [0:0.10302317567207048] [0:0.087415132885467942] [0:0.059326792138992522] [0:0.071597189059273786] [0:0.088710318259078963] [0:0.086214107189694272] [0:0.12439150152793998] [0:0.065537126759067976] [0:0.08474656183195689] [0:0.098751107445293682] [0:0.089642188853268689] [0:0.08886463638815853] [0:0.10362090790623542] [0:0.13423498442630311] [0:0.11370290500898243] [0:0.090700425542752164] [0:0.080802384348328649] [0:0.081426502853869584] [0:0.16658089065725923] [0:0.1732290126754695] [0:0.10844244409966823] [0:0.15911442195521094] [0:0.1664016797208531] [0:0.10259954012461675] [0:0.11721191073926308] [0:0.080016886534660325] [0:0.13755971620239132] [0:0.082417459605339333] [0:0.06662250393698374] [0:0.082805210780219601] [0:0.1175810296840788] [0:0.13785320115774777] [0:0.12946010643081557] [0:0.12245861338201902] [0:0.14714252521564194] [0:0.090823005671812951] [0:0.12727194000139386] [0:0.087636261263956905] [0:0.113091004133149] [0:0.14612395459135399] [0:0.096220660126358035] [0:0.098143298883156371] [0:0.10263863193444511] [0:0.11183493585176547] [0:0.10257228315046661] [0:0.065092361001181057] [0:0.10914215257716002] [0:0.11739395970491706] [0:0.10858453756819925] [0:0.10837724757208599] [0:0.15192135758715922] [0:0.12840716840305702] [0:0.084568027714348973] [0:0.10430063851056681] [0:0.070307643547131191] [0:0.16711384221106454] [0:0.10299562114970161] [0:0.074525877266486157] [0:0.084485032312616976] [0:0.086590865043415927] [0:0.090190406464276909] [0:0.087597063565687083] [0:0.11515113201358997] [0:0.13557688439843077] [0:0.12181780511573946] [0:0.13497408561639082] [0:0.11937639250699703] [0:0.14991575005418797] [0:0.085460698037377159] [0:0.081708945253128759] [0:0.1060823334668663] [0:0.09176669271544069] [0:0.11211455651698662] [0:0.090798043905823661] [0:0.11276394917400664] [0:0.085501923561535617] [0:0.074591968055916696] [0:0.1185857969519091] [0:0.086909446464257814] [0:0.10222636472329918] [0:0.069676315931970989] [0:0.087726287299869352] [0:0.10526786942532756] [0:0.079516496548827253] [0:0.071179697873261921] [0:0.11121543647628709] [0:0.1261311314444776] [0:0.095372527320991704] [0:0.12971303623593747] [0:0.072905029388729808] [0:0.074917449043002501] [0:0.084528420709867602] [0:0.10156365463575628] [0:0.09039181356222277] [0:0.075672451310300634] [0:0.09240052165849981] [0:0.10267357053454933] [0:0.12963200433318506] [0:0.12072908495568525] [0:0.10177786162451705] [0:0.11474976068252195] [0:0.08788890655447755] [0:0.12925360811897799] [0:0.12033449847575113] [0:0.13767870725530382] [0:0.069021727984198533] [0:0.096865717197151632] [0:0.10912079354031359] [0:0.076914845523819136] [0:0.08780833299001739] [0:0.090951208078235035] [0:0.1462851998659751] [0:0.086575673782215576] [0:0.13616034182461673] [0:0.15189989016360322] [0:0.10311402268248282] [0:0.098141327404983311] [0:0.12239676579207553] [0:0.085176718609545135] [0:0.097007704628280192] [0:0.1259224356995059] [0:0.10614351211972768] [0:0.098109716683555961] [0:0.12019841279427969] [0:0.13734953808118761] [0:0.11811590122555567] [0:0.15338568635517325] [0:0.096979481445516894] [0:0.11823313367609257] [0:0.097550461809445307] [0:0.10162668327910716] [0:0.075933313229062438] [0:0.10947597649377425] [0:0.087011874923369814] [0:0.10479334066985312] [0:0.098691390745783536] [0:0.090846059465787457] [0:0.11373056716345832] [0:0.14042788125669897] [0:0.10424284118858726] [0:0.1252337040956715] [0:0.1205951612055552] [0:0.1275045051690509] [0:0.062909659755866168] [0:0.093051459801559613] [0:0.11290681568532651] [0:0.15977653961701707] [0:0.095912018977743638] [0:0.10619249775424566] [0:0.089572563478061876] [0:0.10778135880918102] [0:0.13250061996952095] [0:0.068284051871374471] [0:0.099052407337776288] [0:0.089810088247743475] [0:0.060566880872502726] [0:0.10638821219504288] [0:0.11904197699570693] [0:0.11733791731644125] [0:0.10311375302705955] [0:0.075359079580547467] [0:0.1163739206678895] [0:0.12152448577400642] [0:0.1212131449840257] [0:0.093235282169849068] [0:0.10124132622539989] [0:0.12915711184291015] [0:0.15324302553296162] [0:0.085984405148838761] [0:0.10256006066274212] [0:0.1148156494776902] [0:0.16363641964212383] [0:0.13249076634052417] [0:0.12998612436511509] [0:0.12078282664070374] [0:0.11225238106515696] [0:0.064633916353167745] [0:0.09293955327536374] [0:0.13105630040467769] [0:0.10874554385327781] [0:0.097413206392049728] [0:0.072676224181104615] [0:0.069496876489196321] [0:0.10715315206152687] [0:0.11010722823854888] [0:0.084474980348548251] [0:0.094488739931298429] [0:0.074713802978840449] [0:0.1277883559923105] [0:0.11392540956296825] [0:0.10823431249818365] [0:0.11772951933315785] [0:0.10297139616217493] [0:0.10701673046342672] [0:0.095713525018841492] [0:0.097129173153432807] [0:0.081869146084592975] [0:0.082349272123622363] [0:0.058309196011937278] [0:0.057396294793455226] [0:0.091324155267725235] [0:0.083710867544255441] [0:0.066169265772755601] [0:0.08507939971209727] [0:0.11648072524402611] [0:0.11132266815692096] [0:0.11160747148338229] [0:0.099537292508648123] [0:0.1300702438323374] [0:0.12349611749082182] [0:0.10258943061079663] [0:0.093142137149324747] [0:0.13192664249603864] [0:0.092101558809627837] [0:0.085472403808138045] [0:0.11777293687219192] [0:0.11165015707987219] [0:0.07846898928771244] [0:0.088888105525230937] [0:0.094472758878739321] [0:0.096203367917478896] [0:0.073569210219627479] [0:0.10128206115930509] [0:0.079217290125230821] [0:0.18577266332746228] [0:0.12267971864371778] [0:0.099403618225305718] [0:0.1064764075391527] [0:0.10323853946413999] [0:0.091461027398701877] [0:0.11474992646758012] [0:0.065902560379876421] [0:0.16868448094508645] [0:0.15941271497223791] [0:0.1017946615797108] [0:0.097274757701092757] [0:0.1439900540053945] [0:0.087635313302770135] [0:0.099773730540635597] [0:0.11076665880792874] [0:0.060092300882801451] [0:0.083759833273145415] [0:0.096161195285101753] [0:0.10087824106315087] [0:0.12522780413555143] [0:0.11642162452048355] [0:0.12113430400202618] [0:0.072933809260853869] [0:0.11334459069225097] [0:0.086147386587382038] [0:0.08477146985958714] [0:0.099137104773539875] [0:0.062805308326009598] [0:0.094545474362233511] [0:0.12682355882365612] [0:0.092788075159036379] [0:0.073259778107883755] [0:0.11214107248641839] [0:0.1172615010081232] [0:0.088129491813960861] [0:0.10596194564535809] [0:0.10945613304213141] [0:0.12099124564968701] [0:0.06444176941000529] [0:0.12028498551015164] [0:0.12080397459255866] [0:0.10420663200922839] [0:0.071807405761743978] [0:0.084165557711570735] [0:0.12881780589141495] [0:0.089653601010260861] [0:0.11670651203322809] [0:0.066902799555667164] [0:0.092787988729198231] [0:0.10549008589637343] [0:0.089973588451030428] [0:0.11075433922735536] [0:0.10592698566738393] [0:0.095351149864900675] [0:0.11980306637119501] [0:0.074639584732005812] [0:0.079762119541482476] [0:0.13205369939370823] [0:0.093218379753008354] [0:0.077938274151729187] [0:0.090024426146192132] [0:0.10876831005050114] [0:0.12201669029717038] [0:0.12838554975531072] [0:0.10972915877095012] [0:0.11485505500672816] [0:0.10499107741073123] [0:0.16040188552206094] [0:0.11752235589593707] [0:0.11300085322722316] [0:0.1145805904731873] [0:0.10935732524469571] [0:0.091625094577727481] [0:0.095603150264183021] [0:0.10534767624390765] [0:0.17109590841984532] [0:0.10597767476668898] [0:0.11558243063112367] [0:0.10108661045394701] [0:0.060062313673402853] [0:0.068017421320199722] [0:0.070453505234263206] [0:0.078941651354318146] [0:0.082718068606357678] [0:0.075001168551927427] [0:0.092461575426990669] [0:0.075002358606176198] [0:0.065252025966254568] [0:0.10548324598079745] [0:0.11339794580467427] [0:0.1008858869918423] [0:0.083876786488359861] [0:0.10570255560489823] [0:0.05687834972501804] [0:0.083363258746552857] [0:0.083330551751596704] [0:0.069931354574393076] [0:0.099873496448125723] [0:0.14386643064023261] [0:0.061585432849040139] [0:0.11652727583820599] [0:0.11128505358710893] [0:0.085818736141012902] [0:0.1602577882740378] [0:0.088795852442338355] [0:0.063801075760343634] [0:0.065626992572138443] [0:0.092986031168461908] [0:0.06670766742699745] [0:0.081875944094160949] [0:0.069420667332190614] [0:0.061189389494783281] [0:0.14162834278533773] [0:0.089158218557365734] [0:0.10641667891235429] [0:0.10778233226508112] [0:0.092744647043040071] [0:0.05453029394927511] [0:0.059700300353293038] [0:0.12293626163379399] [0:0.072195740472749723] [0:0.12019953634230775] [0:0.10343137697614536] [0:0.11993719235159229] [0:0.094097406919131404] [0:0.11039013152995875] [0:0.11900075473959425] [0:0.093034198267558404] [0:0.19349704715342222] [0:0.084391199067245209] [0:0.10260342958041484] [0:0.12781745369783801] [0:0.08832147687636091] [0:0.072228257703479765] [0:0.085819070573133344] [0:0.097175504617872943] [0:0.098061447213267233] [0:0.11742340751489279] [0:0.077346842338343644] [0:0.094239851531054769] [0:0.10637541608149315] [0:0.15481505456519348] [0:0.083689592724509126] [0:0.081235162090368712] [0:0.11717574935569139] [0:0.13765781572333494] [0:0.091575071002767822] [0:0.10038223182212747] [0:0.13084050312519796] [0:0.08400110914205558] [0:0.13500723114188182] [0:0.10546200105531292] [0:0.13129549782119049] [0:0.085512598717453481] [0:0.083915576268810119] [0:0.076401200727626115] [0:0.10906190894057664] [0:0.11319167059612327] [0:0.12690114459148397] [0:0.089251349024236426] [0:0.12213002753312022] [0:0.092817188167027734] [0:0.16210422597192212] [0:0.077613338742502452] [0:0.11544851028011054] [0:0.096767471169665803] [0:0.13267531213571962] [0:0.1338701350359095] [0:0.11944329567011401] [0:0.15108827152930518] [0:0.08877122495204097] [0:0.11097416670390095] [0:0.14820506031264724] [0:0.14387123452536407] [0:0.13140135843592785] [0:0.11293584581804045] [0:0.11939961454996002] [0:0.13569556831533255] [0:0.090304866335956469] [0:0.096036328316272693] [0:0.1200531971633684] [0:0.13857016317501064] [0:0.077309460245048589] [0:0.082365124402566145] [0:0.11693850682774835] [0:0.11866479162406712] [0:0.0823666768654744] [0:0.10033080360802883] [0:0.096442801823693455] [0:0.095811424006231868] [0:0.090527255779182525] [0:0.10931443367437223] [0:0.12215404086864305] [0:0.10060275690279218] [0:0.11567027500199367] [0:0.064603610392597113] [0:0.12784305807796989] [0:0.1197853371421857] [0:0.076879662312143909] [0:0.064221097945609304] [0:0.072158930361035586] [0:0.091288835976112287] [0:0.080229841912672697] [0:0.098915823868652331] [0:0.083891647183907417] [0:0.14651453755682442] [0:0.11264204360293896] [0:0.081595584681841735] [0:0.065715251288148507] [0:0.086683637881953962] [0:0.080296734379670318] [0:0.088498062082467008] [0:0.077085880494336984] [0:0.10932960986059896] [0:0.079933516859594461] [0:0.1076552055778288] [0:0.090918024565336195] [0:0.10779395998673481] [0:0.087451239288151572] [0:0.13344699286021783] [0:0.10846429012560189] [0:0.10224272553043466] [0:0.18645168314717778] [0:0.11885680300649575] [0:0.10447184469167113] [0:0.15201592164955549] [0:0.083645779072739901] [0:0.11669568067533233] [0:0.10331395295222656] [0:0.06432627771954183] [0:0.065587102213804663] [0:0.13160364462616073] [0:0.12672691816308065] [0:0.12255022439418457] [0:0.1324634752126555] [0:0.072776636259291372] [0:0.079507618232752153] [0:0.063768189338028136] [0:0.079443182380250041] [0:0.083236454077392857] [0:0.07585953467414458] [0:0.083733486243170493] [0:0.075075022540953287] [0:0.070570300394420124] [0:0.14487716921306634] [0:0.10193261039031674] [0:0.088957401517411577] [0:0.074689320815933935] [0:0.089278645058137471] [0:0.087700287157069373] [0:0.078700604395080268] [0:0.096236112234420926] [0:0.064392199453591939] [0:0.063809575376278752] [0:0.106494754170172] [0:0.13150368024071141] [0:0.076510657802037335] [0:0.10029074061595437] [0:0.086248282229741971] [0:0.087964407428126237] [0:0.08426107453867529] [0:0.12372384835806871] [0:0.095223426504873199] [0:0.090278796426602942] [0:0.11364304658688613] [0:0.11390048730462356] [0:0.14093314882485458] [0:0.086512086820153128] [0:0.16455032313939422] [0:0.095984745119813739] [0:0.1329372562786573] [0:0.10399418191545695] [0:0.12863237163656013] [0:0.078040276996659566] [0:0.12955568459283734] [0:0.10046206304244855] [0:0.11704534834460145] [0:0.13357253505477668] [0:0.11052196205174661] [0:0.075097606757271201] [0:0.09387987582690277] [0:0.11489915023065619] [0:0.12077412825344708] [0:0.12323189865323533] [0:0.10429459307332027] [0:0.12047884899764466] [0:0.084670336404607499] [0:0.088373389469799252] [0:0.090517726170772708] [0:0.14033003367494173] [0:0.077438107353133098] [0:0.11857640788416392] [0:0.12992702604221129] [0:0.14271209824342446] [0:0.11963298191531299] [0:0.099871736949788445] [0:0.1324534830398614] [0:0.10913009047791859] [0:0.079626817148356177] [0:0.11706595210421722] [0:0.11768355113415915] [0:0.086587710426667894] [0:0.10244974969112695] [0:0.10704458972166857] [0:0.13165076729648839] [0:0.13480155105516289] [0:0.13940809934121495] [0:0.062416729698394381] [0:0.11260728544651845] [0:0.12923860603231885] [0:0.13687210703529348] [0:0.11388616811698937] [0:0.10624145762687406] [0:0.093751080298359296] [0:0.10888705516600687] [0:0.10067075092179724] [0:0.15103564774390046] [0:0.11734795427967927] [0:0.13114782661403582] [0:0.073395187907418863] [0:0.11893660145649096] [0:0.12717391277569259] [0:0.11146513104396387] [0:0.063981946338640489] [0:0.093390845482254917] [0:0.096034284402154044] [0:0.11729019044185506] [0:0.088783028155043298] [0:0.12370772519158234] [0:0.092210519740123745] [0:0.064639136759602256] [0:0.07609579669755083] [0:0.098198320083221574] [0:0.069245549114635263] [0:0.075952426315256033] [0:0.07593321037714558] [0:0.12458707631718069] [0:0.07881053941961827] [0:0.10022023100488321] [0:0.083761438046425635] [0:0.11580139566359972] [0:0.12002921836835403] [0:0.068112533749155782] [0:0.088868038626853066] [0:0.12868196312621313] [0:0.06488909845478702] [0:0.11916278813732673] [0:0.099441867415540744] [0:0.093273309702900015] [0:0.14351015541226197] [0:0.10835166151491502] [0:0.13126639358266087] [0:0.13779976770020083] [0:0.14569240486572868] [0:0.12276808879106874] [0:0.066704447392818528] [0:0.099506140695162962] [0:0.085176298977883341] [0:0.094957665862161603] [0:0.074479090401621179] [0:0.13872424741507608] [0:0.088584230981220854] [0:0.11733937438550196] [0:0.12429057375416064] [0:0.10181377163187955] [0:0.10202136195187078] [0:0.13714671269644199] [0:0.11288223332138335] [0:0.097620707487919206] [0:0.066264596434397444] [0:0.08806896847768024] [0:0.082974579137016002] [0:0.10024429237431744] [0:0.11439342273585774] [0:0.1039863815730499] [0:0.10282434601449994] [0:0.092418594010329105] [0:0.074138162374590422] [0:0.13604914612104535] [0:0.058990009925347198] [0:0.11485661752386066] [0:0.071271497256193472] [0:0.10262138315644949] [0:0.11150597741615779] [0:0.081592721985129776] [0:0.072254422836940807] [0:0.065623960683715829] [0:0.12398354553221713] [0:0.086364965163872598] [0:0.13856340732883077] [0:0.066125501033519843] [0:0.11421951951191384] [0:0.13016075970855465] [0:0.14629019210847607] [0:0.12525132210626758] [0:0.09666281811829229] [0:0.15371641208788617] [0:0.10773204098817893] [0:0.097732092780881921] [0:0.12804236481034995] [0:0.073884590215581331] [0:0.071095823342911951] [0:0.075418536478494475] [0:0.11857895970616347] [0:0.072478523824628188] [0:0.096705082050010549] [0:0.064492908126300624] [0:0.061535937019654971] [0:0.11995481774951212] [0:0.064035382487600184] [0:0.10750811103503127] [0:0.084098092795457977] [0:0.090758306632233485] [0:0.10564612384672327] [0:0.12211917085629236] [0:0.1519462876327641] [0:0.084143750248389715] [0:0.1086481771391995] [0:0.1181884595558562] [0:0.090732070509553578] [0:0.093087640379643552] [0:0.11914903835675068] [0:0.11449358045085958] [0:0.11835965032899037] [0:0.13517144714488191] [0:0.15156720288060371] [0:0.073466596220866445] [0:0.10395731180890876] [0:0.11785062961830807] [0:0.10031666822340282] [0:0.12671943116816248] [0:0.090305676593649839] [0:0.093495828622087468] [0:0.12554098791432047] [0:0.112269744599321] [0:0.10542022771850033] [0:0.15410626878856445] [0:0.098948029007567703] [0:0.14709448825985932] [0:0.10273774443496538] [0:0.10391655113550524] [0:0.10228278890238268] [0:0.11116589774308819] [0:0.064027723232524494] [0:0.1174197213729051] [0:0.16622124742258479] [0:0.10166267027070598] [0:0.067343291401986721] [0:0.095737252690231631] [0:0.12721401525035328] [0:0.12089883763008828] [0:0.1000600547547614] [0:0.10931533203111786] [0:0.10077825456367234] [0:0.099953656624345702] [0:0.13152014703876927] [0:0.07698111954862287] [0:0.076601439515687639] [0:0.071237183768363091] [0:0.17368358767041053] [0:0.16115880608201127] [0:0.16262796798821125] [0:0.085603459470955004] [0:0.10804946399184359] [0:0.11195912520403864] [0:0.12645830398647617] [0:0.078762766147044153] [0:0.13730695149078145] [0:0.13069606334334269] [0:0.087182483639177188] [0:0.09679695600969522] [0:0.076666562237521454] [0:0.10647524920480467] [0:0.065855563442194148] [0:0.091929135736693243] [0:0.12889181191980953] [0:0.09841860663196382] [0:0.12970547229375728] [0:0.13175211770983644] [0:0.062310215676183389] [0:0.10002218230959214] [0:0.1085860824834767] [0:0.1147440056710214] [0:0.11954148115136951] [0:0.076902920124692548] [0:0.082390360597511328] [0:0.10448481400997592] [0:0.12128322509228669] [0:0.067498016705458352] [0:0.082127961960417911] [0:0.089979978027970323] [0:0.11611778398734673] [0:0.092268181970624252] [0:0.1321623739967818] [0:0.15650867525776366] [0:0.062736212159698879] [0:0.081252308933812398] [0:0.098271427605646416] [0:0.066173747517001544] [0:0.088021337138733197] [0:0.098606548465488136] [0:0.07773324515907698] [0:0.11749370917640338] [0:0.094755561023531609] [0:0.072937681458037709] [0:0.11389889201657004] [0:0.11471711330764935] [0:0.12657194826678259] [0:0.098290420050664171] [0:0.14401838861358907] [0:0.16105090053313265] [0:0.072515801770518903] [0:0.072969159101657188] [0:0.11035219093114679] [0:0.10387286195069073] [0:0.080916344108953334] [0:0.10362799811415238] [0:0.10134448244008337] [0:0.058761321069816713] [0:0.072535471462311971] [0:0.075948128556449557] [0:0.076137733603878183] [0:0.077063416904617543] [0:0.085204624521412198] [0:0.078744271266225366] [0:0.0723877491816627] [0:0.071095807597263166] [0:0.112137822090038] [0:0.12469911956194557] [0:0.082594250249163795] [0:0.07479210533098804] [0:0.084345030920501482] [0:0.072858742314588054] [0:0.081351431164915208] [0:0.091547717393467162] [0:0.072423428468628676] [0:0.064155202609069817] [0:0.10417083577831958] [0:0.11633839519961076] [0:0.069639811463429999] [0:0.11038165168247858] [0:0.16680754126540559] [0:0.17031031979260677] [0:0.081087012196168054] [0:0.084940646106109075] [0:0.10143049533193586] [0:0.062787227162355241] [0:0.090551506870915704] [0:0.068213536611184691] [0:0.11303800213867013] [0:0.062063894455114649] [0:0.11590536926451725] [0:0.10470507455680415] [0:0.11485517513434508] [0:0.10925642550551631] [0:0.094995155540652798] [0:0.10330275612367926] [0:0.12184515923390009] [0:0.10899203710386852] [0:0.12939826147731895] [0:0.095670121822004531] [0:0.096522849366994845] [0:0.11779161211844791] [0:0.068741922269837386] [0:0.11753981134501948] [0:0.10120355297816847] [0:0.098637917173552109] [0:0.093356031442179577] [0:0.079347558686860609] [0:0.094000390523778857] [0:0.13009526962543172] [0:0.067448336902895964] [0:0.083922665759071868] [0:0.10369811927586844] [0:0.10139025181715028] [0:0.11006247058619296] [0:0.074933241387204239] [0:0.077129609787574396] [0:0.065484110339399687] [0:0.081673206461588557] [0:0.069453367941447283] [0:0.080219694165183111] [0:0.091495022980099164] [0:0.15367257086626765] [0:0.095292078573203251] [0:0.089344075689114635] [0:0.088767544274171592] [0:0.10188401384506519] [0:0.1001763051374395] [0:0.11284505451168135] [0:0.068689056855253186] [0:0.094838189748283577] [0:0.10072124209413542] [0:0.10293807591543638] [0:0.11441513047643204] [0:0.10635972020378243] [0:0.115730439113866] [0:0.098015171727885472] [0:0.11809433460743808] [0:0.11672521483162954] [0:0.073775494257119184] [0:0.12910539331825494] [0:0.11897206222476683] [0:0.084746212549604294] [0:0.12381947866197232] [0:0.095371890533255607] [0:0.09228380289580225] [0:0.10967310336212856] [0:0.07827663723153469] [0:0.099298041965033515] [0:0.14463818759165475] [0:0.10477833752933088] [0:0.09771384098568299] [0:0.13718030698804662] [0:0.082598022878298982] [0:0.10344548315890348] [0:0.12634422335051587] [0:0.11590980372752618] [0:0.097623263377960331] [0:0.09941214314239509] [0:0.099119247696599661] [0:0.10109130614749523] [0:0.15778689912888957] [0:0.089065644874226413] [0:0.094880870265963813] [0:0.12394510094193671] [0:0.12976308341588397] [0:0.11387837205174495] [0:0.15531739649998322] [0:0.12612216390502443] [0:0.11343745198546371] [0:0.090265359417886951] [0:0.094254853465596838] [0:0.10554426848498671] [0:0.096213843815664932] [0:0.14745031365858516] [0:0.10956480061442693] [0:0.088056860835443007] [0:0.11934756067913026] [0:0.108169704599412] [0:0.14052101628029945] [0:0.11051537020649461] [0:0.073022380343584242] [0:0.089301204212864013] [0:0.12902438566135321] [0:0.10426922320882112] [0:0.10258568569854731] [0:0.13915769707248418] [0:0.070802452569367583] [0:0.090366273532458574] [0:0.12367174746727255] [0:0.091883000492671715] [0:0.078756447154732054] [0:0.10833998136289125] [0:0.10896668331443149] [0:0.12129038444372466] [0:0.1327773927044103] [0:0.072879549100189581] [0:0.14405587424582886] [0:0.086965495456588229] [0:0.078032163070383437] [0:0.11714799552848194] [0:0.11373746166886196] [0:0.092310332728192779] [0:0.14278357020352589] [0:0.062386233250666077] [0:0.091226704286497429] [0:0.085689628762041267] [0:0.11663513434008344] [0:0.10952088003909279] [0:0.083087235894507422] [0:0.10893759561628177] [0:0.098982182762270998] [0:0.10724283640959474] [0:0.071154675053086508] [0:0.10601001263106506] [0:0.12787547432927707] [0:0.13173997254598349] [0:0.11215972752071965] [0:0.11508963635737335] [0:0.076217596381109726] [0:0.090596278548707929] [0:0.092774882598051875] [0:0.064899455487326535] [0:0.075145152405196924] [0:0.11679376981955888] [0:0.093695038033371758] [0:0.13276346766345459] [0:0.11064248511097698] [0:0.099684849221876953] [0:0.1072831977949299] [0:0.095582790672882126] [0:0.10722856902738338] [0:0.10173672425749175] [0:0.16141175531573412] [0:0.12296422776207769] [0:0.14183889413275322] [0:0.11192765713836882] [0:0.062992447741943666] [0:0.07927856584255194] [0:0.064354548995226177] [0:0.073412582119209174] [0:0.064093540294378762] [0:0.080062219925389561] [0:0.065666810234954284] [0:0.060267139766590622] [0:0.10755297208609689] [0:0.12462431621263001] [0:0.074465471738553474] [0:0.074460341147962253] [0:0.072689571944452927] [0:0.053645124859612973] [0:0.067812897934039773] [0:0.083212271641202817] [0:0.055152049269123038] [0:0.079679450252415254] [0:0.11039098570564955] [0:0.06742644243393188] [0:0.10105402546911414] [0:0.10527260411145636] [0:0.10975586136968812] [0:0.10746803341900968] [0:0.1043984433927722] 